<?xml version="1.0"?>
<opencv_storage>
<opencv_ml_svm>
  <format>3</format>
  <svmType>C_SVC</svmType>
  <kernel>
    <type>LINEAR</type></kernel>
  <C>2.6699999999999999e+00</C>
  <term_criteria><epsilon>1.1920928955078125e-07</epsilon>
    <iterations>1000</iterations></term_criteria>
  <var_count>128</var_count>
  <class_count>10</class_count>
  <class_labels type_id="opencv-matrix">
    <rows>10</rows>
    <cols>1</cols>
    <dt>i</dt>
    <data>
      0 1 2 3 4 5 6 7 8 9</data></class_labels>
  <sv_total>45</sv_total>
  <support_vectors>
    <_>
      -1.26628457e-02 2.35647010e-03 7.00148661e-03 1.12850461e-02
      -5.39693004e-03 2.62832176e-03 1.15265921e-02 1.00695016e-02
      -7.04918173e-04 7.63158547e-04 -1.17563759e-03 -7.80157061e-05
      -1.54749243e-04 3.12947464e-04 3.39373574e-03 9.85606946e-03
      8.65592621e-03 1.17655583e-02 -7.05155078e-04 -3.27489735e-03
      -2.85476819e-03 8.32037255e-03 -3.38501297e-03 -1.18194544e-03
      -1.20635459e-03 -1.32203568e-03 -3.42101464e-03 -5.03108080e-04
      -3.73887201e-03 -5.99750783e-03 -2.67439149e-03 0. -5.97833795e-03
      -8.57743062e-03 -6.91834278e-03 -6.58666948e-03 -4.55585215e-03
      -5.75646292e-03 -6.29072497e-03 -1.58890802e-02 5.95853990e-03
      1.06671900e-02 9.14069079e-03 8.47546384e-03 8.08768161e-03
      1.42293992e-02 1.78841688e-02 2.28409655e-02 2.16547064e-02
      6.52552163e-03 -1.96566829e-03 -3.96985607e-03 -1.20761467e-03
      -5.47964685e-03 -1.52699777e-03 2.07477296e-03 1.39715094e-02
      5.91504946e-03 5.26994793e-03 6.46500755e-03 1.36840045e-02
      1.00045297e-02 9.83052794e-03 0. -2.14138348e-03 1.13338989e-03
      2.31092654e-05 5.21007634e-04 -1.75751641e-03 3.80004465e-04
      -5.94528101e-04 3.30566126e-03 4.74890508e-03 1.87871570e-03
      6.19122386e-03 9.20322631e-03 1.44510167e-02 3.64284450e-03
      4.41800943e-03 -1.67734399e-02 -7.02605024e-03 -6.57041185e-03
      1.38349785e-03 2.17678328e-03 -6.55157026e-04 1.78752723e-03
      2.78166076e-03 3.39177495e-04 8.18844326e-03 8.69292952e-03
      4.75685764e-03 1.00523978e-02 5.45529183e-03 1.71286482e-02
      9.04183183e-03 0. 7.87977502e-03 1.30853150e-02 1.73900127e-02
      1.04896519e-02 9.58257634e-03 1.23617444e-02 1.28870364e-02
      6.52085850e-03 8.48601689e-04 -3.83012556e-03 6.66201406e-04
      -3.45358462e-03 -1.15651647e-02 -3.38414940e-03 -6.71565346e-03
      -1.53819695e-02 -3.01662064e-03 5.90689573e-03 9.81883798e-03
      1.35934707e-02 1.39013324e-02 5.94597496e-03 2.27702389e-04
      2.68898392e-03 -3.87512737e-05 -2.27746693e-03 -2.19213264e-03
      -2.09759572e-04 1.61200389e-03 -1.81137220e-04 1.49917966e-02 0.</_>
    <_>
      2.33652350e-02 3.91061567e-02 1.48763135e-02 -5.74133033e-03
      1.47254218e-03 3.43026547e-03 -2.02865638e-02 -1.16731401e-03
      -1.96648538e-02 -2.79709208e-03 -1.00037577e-02 8.24993418e-04
      5.67580806e-03 1.92961432e-02 1.00616254e-02 1.21533871e-03
      1.37583073e-02 9.46720690e-03 3.49686109e-03 1.31232338e-02
      4.10161447e-03 -1.53825069e-02 -1.00586358e-02 -2.33641025e-02
      -2.94790696e-02 7.01076118e-04 -9.54419933e-03 -2.47805752e-02
      2.67850095e-03 -1.40158394e-02 -3.92890768e-03 0. 1.00985309e-02
      -2.78937779e-02 -2.92529445e-02 -2.48805117e-02 -1.57781709e-02
      -2.94369161e-02 -2.42920630e-02 -5.30758116e-04 -3.51332081e-03
      1.69881396e-02 -1.81830805e-02 2.86269211e-03 6.54688478e-03
      2.07995176e-02 1.78159401e-02 1.94644816e-02 2.52994820e-02
      6.06671954e-03 -1.52130309e-03 -1.69365313e-02 -1.07834181e-02
      -1.36650950e-02 -3.40348519e-02 -6.90345303e-04 1.42525695e-02
      -7.00607011e-03 1.54958479e-02 2.92415544e-03 1.37303174e-02
      2.71407682e-02 1.08657815e-02 0. -2.71956925e-03 -7.04812491e-03
      -1.56721342e-02 -1.01313815e-02 6.80745719e-03 -3.21611413e-03
      1.66110341e-02 1.26543958e-02 7.72203202e-04 2.07851026e-02
      1.29298517e-03 -3.62357451e-03 -5.21890353e-03 1.76671660e-03
      -7.49942893e-03 -1.92937292e-02 -2.39486936e-02 -1.76296942e-02
      -1.58521184e-03 -1.57981012e-02 -5.31006930e-03 1.47053255e-02
      1.90267488e-02 1.02167819e-02 5.09760901e-03 2.33702306e-02
      -2.69482029e-03 1.04354145e-02 -1.63211320e-02 -8.37108120e-04
      -2.09641308e-02 0. 5.93214436e-03 3.23864669e-02 2.61216778e-02
      5.65764168e-03 1.36358831e-02 1.65285543e-02 7.62946997e-03
      2.57286895e-03 -1.49574876e-02 -1.10066924e-02 -8.42757523e-03
      -1.61897615e-02 -2.57637892e-02 -3.60612146e-04 7.21821282e-03
      4.33908106e-04 2.03346531e-03 -6.52246177e-03 5.14974911e-03
      7.50351278e-03 6.26932131e-03 2.14664117e-02 -3.20367725e-03
      1.20781939e-02 -7.90100731e-03 -1.78054310e-02 -2.23099049e-02
      -1.36620263e-02 -8.02410394e-03 4.69775079e-03 1.89234298e-02 0.</_>
    <_>
      8.91524774e-04 2.63380706e-02 -1.46790594e-03 -3.07399593e-03
      -9.66997351e-04 -3.96704912e-04 -9.02115833e-03 -3.09013156e-03
      -8.24782252e-03 5.48520125e-03 4.34377650e-03 -1.47124531e-03
      3.62987164e-03 1.45389186e-02 1.32239005e-02 2.43509677e-03
      1.44227333e-02 1.29444264e-02 1.16041936e-02 1.99343711e-02
      -2.02417746e-03 -1.05928360e-02 -1.47535224e-02 -2.01606788e-02
      -2.02304237e-02 -7.23440666e-03 -1.50481658e-02 -2.31845435e-02
      -8.13379884e-03 -1.21810036e-02 -7.70487124e-04 0. 2.42572278e-02
      6.76409109e-03 -2.17604954e-02 -2.07670219e-02 -2.25989632e-02
      -1.43239871e-02 -1.95903778e-02 -5.25693921e-03 -5.66272205e-03
      5.42165432e-03 -1.02787754e-02 -6.67446107e-03 -5.06279571e-03
      1.60265975e-02 3.78999673e-02 2.21515168e-02 1.76184792e-02
      2.49971393e-02 2.02367380e-02 3.22597404e-03 -1.09528657e-02
      -7.79318996e-03 -2.36232411e-02 -7.93007389e-03 5.18326974e-03
      -1.19577954e-02 7.09207868e-03 4.59687039e-03 1.67601164e-02
      3.13378237e-02 2.37401295e-02 0. 8.93693324e-03 -1.44855143e-03
      -1.92215145e-02 -1.90233067e-02 -6.90339273e-03 -1.16467467e-02
      1.02763548e-02 8.13489035e-03 9.07951221e-03 4.07788949e-03
      1.72647983e-02 5.68436738e-03 -8.68734438e-03 4.67615714e-03
      3.81699443e-04 -3.22657563e-02 -2.37133633e-02 -1.96709391e-02
      6.88205124e-04 -7.97470193e-03 -3.33261536e-03 -4.86184983e-03
      -1.39268336e-03 4.50333115e-03 1.72703527e-02 1.20446924e-02
      1.98240895e-02 8.81077815e-03 1.89313125e-02 2.68580019e-02
      7.92659540e-03 0. 4.17408813e-03 6.16494380e-03 -1.13949487e-02
      1.34785764e-03 3.33545194e-03 2.22514216e-02 1.55120604e-02
      -3.15110479e-03 7.66099954e-04 1.85382273e-03 -4.62284632e-04
      -1.51903527e-02 -2.82659009e-02 -4.57811961e-03 -2.91060526e-02
      4.38316399e-03 -3.29433871e-03 -1.92461107e-02 7.56244524e-04
      -1.23263225e-02 8.29888135e-03 1.37758104e-03 -5.05073601e-03
      1.04406476e-02 -7.13490788e-03 -6.65649166e-03 -1.50423003e-02
      -1.28222245e-03 -1.52452607e-02 -2.57025589e-03 -1.32244630e-02 0.</_>
    <_>
      -6.50955644e-03 1.95381921e-02 4.07866761e-03 -6.98186224e-03
      4.30256315e-03 4.28621570e-04 1.86333731e-02 1.84111428e-02
      1.60192652e-03 -1.02693029e-03 -1.77247562e-02 -1.69886593e-02
      -1.03022084e-02 -4.85094497e-03 -3.24231805e-03 -6.69660419e-03
      -5.64047787e-03 1.41433021e-03 -1.94661366e-03 7.69667793e-03
      1.44684911e-02 1.19889211e-02 -4.77695046e-03 -2.06797593e-03
      -1.94662635e-03 -2.06902507e-03 -2.66673043e-03 -2.30557332e-03
      1.62711577e-03 9.14327917e-04 -5.52147161e-04 0. -6.89375121e-03
      -1.39505155e-02 -1.33798588e-02 -9.58047528e-03 -1.35571621e-02
      -5.86472917e-03 -7.58821564e-03 -6.88856235e-03 1.02421222e-03
      1.26398848e-02 6.22932566e-03 1.06844855e-02 4.32060752e-03
      1.89596321e-02 2.56970376e-02 3.60274385e-03 2.90065240e-02
      1.18003665e-02 6.21830346e-03 2.40075260e-05 -9.32294293e-04
      -9.25568305e-03 -9.62164626e-03 -1.28191765e-02 -1.00370031e-02
      -6.55294163e-03 5.63452626e-03 1.15960753e-02 2.37979479e-02
      6.49579335e-03 1.18710389e-02 0. -2.06576530e-02 -2.11997461e-02
      -2.19260342e-02 -2.45024655e-02 -7.28551531e-03 5.72271785e-03
      -1.97805874e-02 1.02273689e-03 3.31162883e-04 1.14108156e-02
      1.09364735e-02 1.12406276e-02 1.26194349e-02 1.68277659e-02
      5.43793105e-03 -8.62742867e-03 -8.67824256e-03 -1.68751981e-02
      -3.56109440e-03 -2.91950349e-03 -2.50008702e-03 4.61635366e-03
      2.15215702e-03 5.51540311e-03 1.80141367e-02 1.71155836e-02
      1.45550119e-02 2.00202763e-02 8.51563993e-04 9.38818604e-03
      4.04843222e-03 0. 1.27175646e-02 1.44829731e-02 2.82182693e-02
      1.28271440e-02 1.12421643e-02 2.69407760e-02 2.06082277e-02
      6.84907718e-04 -1.51161130e-05 -7.05497479e-03 -1.17509170e-02
      -1.38329417e-02 -1.59442611e-02 4.69424482e-03 -2.00163573e-03
      -5.76954754e-03 2.34377757e-03 -1.39807574e-02 3.49409040e-03
      -5.19519858e-03 7.49478303e-03 7.84945302e-03 9.03762504e-03
      1.93665712e-03 -1.24535710e-02 -1.44268926e-02 -6.88073738e-03
      -1.12671908e-02 -7.47786183e-03 -1.24929985e-03 1.06694167e-02 0.</_>
    <_>
      -8.30569305e-03 -9.08947492e-04 -1.14565874e-02 1.39389634e-02
      9.12819430e-03 2.08672695e-02 -2.51573976e-04 3.48687026e-04
      2.06124280e-02 6.76318863e-03 1.76341564e-03 -1.22459354e-02
      -1.26397819e-03 1.58314500e-02 -7.81333074e-03 -1.41440181e-03
      -6.83438193e-05 -2.40107044e-03 -1.43010879e-03 9.54516698e-03
      1.15256440e-02 7.58149987e-03 -9.21926368e-03 -1.38243381e-02
      -1.82991363e-02 -6.65760459e-03 2.33767414e-03 -2.20500189e-03
      -5.17803198e-03 -4.87604504e-03 -2.20345054e-02 0. 2.75266934e-02
      3.45867197e-03 -2.27714609e-02 -1.08133545e-02 -2.31445394e-02
      -2.33069938e-02 -2.38622930e-02 -1.18575683e-02 -1.59524083e-02
      -1.47845910e-03 6.78440277e-03 -3.26489354e-03 -1.49011076e-03
      2.23192293e-02 2.25922670e-02 3.08566727e-02 8.80517648e-04
      2.71938015e-02 1.22139454e-02 4.11191676e-03 -1.48763759e-02
      -5.59999840e-03 -2.28815116e-02 -3.70602403e-03 -7.36526866e-03
      6.56553498e-03 -8.29277188e-03 1.64172892e-02 2.38223709e-02
      1.94381569e-02 2.24045459e-02 0. 1.45869860e-02 6.08810503e-03
      7.26862531e-03 -1.29780276e-02 -1.56597253e-02 -1.93276349e-02
      -3.94761143e-03 -9.82297678e-03 -8.78494140e-03 -1.25502367e-02
      -3.14801210e-03 5.90570597e-03 1.87782366e-02 1.94140449e-02
      1.89824887e-02 2.18961835e-02 8.16642889e-04 -1.23511087e-02
      -1.73916691e-03 -1.94583889e-02 -2.74163913e-02 -2.44137123e-02
      -2.39206161e-02 -1.02818413e-02 -5.05911093e-03 1.09323338e-02
      1.78890973e-02 1.41996322e-02 1.28604332e-02 2.44971700e-02
      8.85768328e-03 0. -6.73784176e-03 -8.37913528e-03 1.00930566e-02
      1.03531815e-02 1.45494677e-02 1.99838933e-02 1.49922939e-02
      -1.42690847e-02 6.60275389e-03 1.36966733e-02 -1.57723520e-02
      -1.21641504e-02 -1.32731418e-03 -1.51290232e-02 -1.69374570e-02
      -1.81067977e-02 -1.32532427e-02 1.36432648e-02 -1.07085258e-02
      -6.33623265e-03 6.14500232e-03 3.64200696e-02 1.17680002e-02
      1.96992327e-02 -1.07570672e-02 -1.42801402e-03 -1.32363383e-02
      -5.15763136e-03 2.00377242e-03 -2.18147784e-03 -8.62934534e-03 0.</_>
    <_>
      5.71063836e-04 -1.78011321e-02 -2.24902127e-02 -1.21034216e-02
      -1.09546697e-02 -1.83738361e-03 1.69234108e-02 3.68516482e-02
      3.55023853e-02 2.43242383e-02 -1.65668540e-02 -1.44021893e-02
      -1.00662466e-02 -3.15885129e-03 -1.66265909e-02 -1.70867424e-02
      -6.64914399e-03 -8.28974415e-03 5.82128880e-04 2.22537457e-03
      1.87068153e-02 1.19036492e-02 -1.95671506e-02 6.71337359e-03
      2.91515398e-03 3.75302625e-03 1.36459582e-02 4.39467002e-03
      -1.75729254e-03 4.54870053e-03 -1.66141130e-02 0. -5.19518880e-03
      -1.89475007e-02 -1.80235766e-02 -5.43315080e-04 -2.92144157e-02
      -1.58789903e-02 5.36561944e-03 8.34570639e-03 2.80401818e-02
      -3.17255873e-03 -6.55832840e-03 1.79734975e-02 6.15370169e-04
      4.15457673e-02 2.12168302e-02 1.13037294e-02 -9.15216655e-03
      2.35799681e-02 1.06764836e-02 -5.64119499e-03 -4.10915026e-03
      -9.42088012e-03 -2.08484102e-02 -6.14735950e-03 1.28982300e-02
      1.61194243e-02 2.55857725e-02 1.66300330e-02 5.75394277e-03
      1.02027983e-03 9.29524936e-03 0. 1.06716137e-02 -2.62029581e-02
      -4.23569046e-03 -2.14116853e-02 -2.87403911e-02 -1.43395811e-02
      -5.29700965e-02 -1.53764812e-02 -8.02738406e-03 -5.18646743e-03
      2.08009710e-03 2.84571443e-02 3.42785828e-02 3.64847854e-02
      4.26214598e-02 1.37263453e-02 -7.27558509e-03 -2.65686102e-02
      3.20979627e-03 -6.69129752e-03 -4.28782180e-02 2.20788289e-02
      1.03497840e-02 -6.54907152e-03 2.40320973e-02 -1.34311412e-02
      6.49564317e-04 2.64724679e-02 4.80068326e-02 4.51666750e-02
      5.86267672e-02 0. 3.28947790e-02 1.96017884e-02 1.00727454e-02
      -2.37264507e-03 1.55586069e-02 3.37589085e-02 2.88036447e-02
      2.03657290e-03 8.20196059e-04 1.17483987e-02 -1.67104006e-02
      -1.45167969e-02 -1.89894512e-02 2.59077325e-02 -8.28528777e-03
      1.56181464e-02 -4.66645323e-03 -1.98074826e-03 -6.43415190e-03
      5.99865662e-03 -1.56505927e-02 -1.18155754e-03 3.59010999e-03
      -2.72940611e-04 -1.62716657e-02 -1.37297241e-02 -1.46156503e-02
      -2.83284672e-03 1.40709430e-02 -2.38500610e-02 3.53668854e-02 0.</_>
    <_>
      2.22552773e-02 1.37858884e-02 5.02719963e-03 1.41908857e-03
      6.18919265e-03 6.44034892e-03 -7.90056866e-03 -1.31148752e-02
      -8.76756385e-03 -3.73923825e-03 -8.87623988e-04 -1.59659272e-03
      -8.94307042e-04 -4.61115967e-04 -8.79004539e-04 -4.46933089e-03
      5.68899419e-03 3.85497976e-03 9.50986054e-03 5.64799970e-03
      6.34950772e-03 -7.34445523e-04 -1.05043156e-02 3.69674014e-03
      -4.39177640e-03 -1.17055234e-02 -1.10844281e-02 -5.94316458e-04
      2.41062255e-03 1.19440909e-03 6.69399183e-03 0. 4.87753516e-03
      -8.80502164e-03 -2.34420411e-02 -1.60896666e-02 -7.59608811e-03
      -8.69577937e-03 -5.84845990e-03 3.11569683e-03 4.91838390e-03
      1.17917592e-02 8.09032470e-03 1.75406076e-02 1.97266508e-02
      1.10321715e-02 2.47809552e-02 2.02750601e-02 2.01753005e-02
      3.00914235e-03 -1.04026217e-02 -9.70610045e-03 -1.52109377e-02
      -9.39294137e-03 -5.64352050e-03 1.53263817e-02 4.37877420e-03
      7.05910707e-03 5.63909020e-03 1.25246160e-02 1.10298879e-02
      1.72398947e-02 7.55264144e-03 0. -6.09372649e-03 -1.11823622e-02
      -1.56580899e-02 -1.89374643e-03 -3.15136393e-04 -1.05500442e-03
      -6.18895516e-03 -1.14937732e-02 2.11506407e-03 8.06373544e-04
      4.31388756e-03 1.05974320e-02 2.35732738e-02 1.91563144e-02
      1.24180168e-02 -4.57936572e-03 -5.65244863e-03 -1.59744788e-02
      -1.13794825e-03 -2.75954069e-03 -3.53426114e-03 5.57266548e-03
      1.16272373e-02 -8.47296789e-03 5.39532164e-03 3.96005483e-03
      7.40699470e-03 1.09259132e-02 -8.88640279e-05 5.09092305e-03
      1.51210018e-02 0. 4.03117621e-03 -4.26242827e-03 1.03347618e-02
      7.94340449e-04 1.15539879e-02 2.74874978e-02 9.32274107e-03
      5.74047398e-03 -4.25331309e-05 2.68407981e-03 -6.55349158e-03
      -3.95417120e-03 -9.84725170e-03 3.17006861e-03 -2.58550816e-03
      -7.10692070e-03 -7.88681768e-03 -1.47335222e-02 1.81166769e-03
      2.57662823e-03 -7.23839155e-04 4.48316475e-03 1.39869014e-02
      1.03212418e-02 6.54080231e-03 -1.15387398e-03 -2.77040782e-03
      1.56533020e-03 2.88573932e-03 6.43234560e-03 2.84810946e-03 0.</_>
    <_>
      -1.35898329e-02 2.75103245e-02 1.12543767e-03 8.16656929e-03
      5.82583901e-03 -7.20029930e-03 3.88620864e-03 8.44158232e-03
      7.44836987e-04 -2.05504168e-02 -1.17973238e-02 -3.00148185e-02
      -3.43156271e-02 -1.21094408e-02 -8.15563090e-03 -1.43321501e-02
      2.45065745e-02 -1.11587513e-02 -1.86042916e-02 5.96090103e-04
      2.47549936e-02 -2.04676464e-02 -1.82496905e-02 -9.99050401e-03
      -6.41111564e-03 -1.65212695e-02 -1.81953982e-02 -4.13570777e-02
      -3.56294506e-04 -2.66794879e-02 -3.79964933e-02 0. 6.99717784e-04
      -2.49790624e-02 -1.59897842e-02 -2.43851077e-02 -4.28826846e-02
      -2.26104092e-02 -1.65016837e-02 1.06032668e-02 1.21592749e-02
      1.19756060e-02 1.61058437e-02 1.19458660e-02 -1.37956841e-02
      2.29235161e-02 3.68748754e-02 2.32969075e-02 3.00725903e-02
      2.76643634e-02 5.49778808e-03 -9.26735159e-03 -5.02408482e-02
      -3.73430215e-02 -1.52438099e-03 2.98490841e-02 2.32525896e-02
      1.42376497e-02 2.32032966e-02 -6.50528865e-03 1.56230563e-02
      2.23139208e-02 2.01868247e-02 0. 6.34787092e-03 -2.53169965e-02
      -3.57815437e-02 -5.62287346e-02 -2.64299121e-02 -1.67035945e-02
      -3.22185606e-02 -2.86273309e-03 -6.92161359e-03 1.00093486e-03
      1.47076603e-03 -4.92566405e-03 1.35584064e-02 3.73766385e-02
      9.42243636e-03 -4.50801477e-03 -3.05125546e-02 -4.71119396e-02
      -6.91734953e-03 -1.80915091e-02 -2.31415778e-02 1.47708543e-02
      -3.34807415e-03 1.07793184e-02 1.01646688e-02 2.99824979e-02
      1.57043841e-02 2.93160267e-02 -1.35694006e-02 2.01417487e-02
      1.03214476e-02 0. 8.60030111e-03 2.01924555e-02 -6.05634972e-03
      3.12976260e-03 3.31838243e-02 1.96989384e-02 9.55503806e-03
      -1.34247895e-02 5.84207382e-03 2.79624052e-02 -4.68003983e-03
      -2.62917522e-02 -1.18132262e-02 -2.32313834e-02 -3.30745988e-02
      -1.13816129e-03 3.39077637e-02 -2.64828163e-03 -3.67175154e-02
      -9.18600056e-03 -2.14681309e-03 -3.27486741e-05 -8.83011892e-03
      9.00460128e-03 -3.46220583e-02 -2.79580522e-02 -1.26440320e-02
      -4.45814393e-02 -4.72226087e-03 1.98284220e-02 2.02275217e-02 0.</_>
    <_>
      1.16065713e-02 1.39835849e-03 3.01497552e-04 -4.02174611e-03
      3.60479322e-03 -1.06487935e-03 5.47335902e-03 -8.44439678e-03
      5.55278733e-03 -8.40705633e-03 -9.84852854e-03 -1.45942168e-02
      -5.48970979e-03 5.83601231e-03 -1.08846379e-02 -1.82025898e-02
      5.57945296e-03 -9.48308501e-03 5.45333652e-03 -1.12633845e-02
      -1.39947282e-03 -2.67788814e-03 -5.12215355e-03 -4.96526994e-03
      -2.28217579e-02 7.62225082e-03 6.18299842e-03 2.16920814e-03
      3.72048211e-03 -3.63463158e-04 5.59728686e-03 0. 2.09798981e-02
      -2.51142727e-03 -5.85493119e-03 -1.80872697e-02 -1.12713026e-02
      -7.11393030e-03 -1.65434200e-02 -1.59084573e-02 3.29770125e-03
      1.23258885e-02 4.80994087e-04 1.21959038e-02 2.09403653e-02
      7.86864292e-03 3.74035798e-02 3.78824696e-02 1.12173874e-02
      3.38329040e-02 1.59679931e-02 -1.05999039e-04 3.66168027e-03
      -8.44726339e-03 -2.36018319e-02 -1.58598144e-02 -9.81485471e-03
      -6.52676041e-04 -4.28256718e-03 2.21929178e-02 1.33112269e-02
      3.17109525e-02 2.89385635e-02 0. 1.00142499e-02 -1.79901905e-02
      -1.80062782e-02 -1.29334414e-02 -1.13361096e-02 -1.05530946e-02
      -3.26200575e-02 -1.41108343e-02 -1.27619747e-02 1.08155608e-02
      2.89623393e-03 1.29652955e-02 3.88370058e-03 1.39432028e-02
      1.21614467e-02 -4.60531702e-03 -1.61437390e-04 -1.76219605e-02
      1.07055856e-02 6.08861400e-03 4.73631127e-03 1.49366716e-02
      -1.79794151e-02 -3.55349533e-04 -5.10824332e-03 2.62515759e-03
      -1.52738485e-03 4.54263948e-03 -4.11267218e-04 7.64381513e-03
      4.07285802e-03 0. 3.49537935e-03 1.43894171e-02 1.96109861e-02
      -6.31534448e-03 6.01815525e-03 1.26707945e-02 1.22475009e-02
      1.19555984e-02 1.41546445e-03 2.42371392e-03 1.16264187e-02
      -3.04930354e-03 -3.00896564e-03 4.44136793e-04 -1.47647765e-02
      -3.06139402e-02 -3.91018391e-02 -3.02220359e-02 -1.92844011e-02
      -1.37540523e-03 8.58081505e-03 8.52896459e-03 3.80203649e-02
      2.00084001e-02 -8.10297264e-04 -1.20702079e-02 -1.98108479e-02
      -1.82399582e-02 -4.85664327e-03 -2.74076145e-02 -2.81785498e-03 0.</_>
    <_>
      5.11946343e-02 -1.27593577e-02 -1.66137004e-03 -4.09768661e-03
      -2.32123560e-03 3.88615415e-03 -7.13222381e-03 -2.77354829e-02
      -1.39327385e-02 1.78885385e-02 1.29486211e-02 -4.73457342e-03
      1.21439237e-03 -4.43992298e-03 -2.94405967e-03 3.00882407e-03
      -1.14503372e-02 -8.72482173e-03 -1.49103096e-02 -1.36543121e-02
      2.24396512e-02 -9.25832149e-03 6.72837533e-03 -3.09393629e-02
      -4.71403170e-03 -9.38496739e-03 -1.47110011e-04 -2.83652525e-02
      9.26283654e-03 -1.02652432e-02 3.78775373e-02 0. 3.95028852e-02
      -1.68535225e-02 -1.56793930e-02 -2.93676332e-02 -3.51866484e-02
      -1.79019216e-02 1.18905874e-02 4.57787327e-03 -5.08079492e-02
      -8.13396927e-03 -9.25315544e-03 -5.13317122e-04 -1.15151675e-02
      -2.05670875e-02 -1.24802515e-02 -1.38509981e-02 -4.37154341e-03
      -1.13870706e-02 -5.98019082e-03 -5.22951931e-02 -1.45558538e-02
      8.89917742e-03 9.88862477e-03 1.94613412e-02 -6.24310896e-02
      -7.62505131e-03 -3.21847871e-02 8.23591650e-03 -1.82586517e-02
      2.71936543e-02 -3.13059986e-02 0. -1.36000635e-02 -2.16930490e-02
      9.86770843e-04 1.64180547e-02 1.86376628e-02 2.81587373e-02
      -1.49278510e-02 1.34426169e-03 -3.68084535e-02 -9.41226445e-03
      -5.33546098e-02 -5.73660340e-03 -1.09937862e-02 -2.52456181e-02
      7.22345524e-03 1.66447870e-02 3.41896750e-02 -1.65921706e-03
      4.76105697e-03 8.34297203e-03 3.30099184e-03 1.03321634e-02
      -4.53316607e-03 -3.01469024e-03 -2.01022830e-02 1.08376080e-02
      -1.80284642e-02 -1.76791232e-02 6.31959701e-04 -7.10924971e-04
      -4.25702743e-02 0. 3.31159942e-02 -4.34810156e-03 -4.44913603e-04
      -1.58602931e-02 -6.42736116e-03 -1.23241951e-03 -3.53172026e-03
      -1.49741359e-02 -9.83520038e-03 -3.04389056e-02 3.18760937e-03
      -2.34690923e-02 -2.15481780e-03 -2.09066253e-02 3.15883979e-02
      2.56067533e-02 2.84865107e-02 1.73446571e-03 9.71904781e-04
      -2.99375672e-02 -2.62569338e-02 2.68118572e-03 7.99895823e-03
      1.56577106e-03 -5.47907352e-02 -2.94328723e-02 -1.65830050e-02
      -1.90094095e-02 -2.75378413e-02 1.16407154e-02 3.41587439e-02 0.</_>
    <_>
      2.46386509e-02 1.09927617e-02 -4.32104309e-04 -3.28876032e-03
      -1.63279474e-03 -8.55744071e-03 -1.72353592e-02 -1.36820627e-02
      -1.10380957e-02 -3.22299916e-03 8.43371544e-03 -2.33381195e-03
      -6.88464148e-04 9.47977678e-05 9.57414304e-05 6.01859484e-03
      -1.16157542e-04 -5.11545339e-04 -3.87662579e-03 1.77903019e-03
      1.61356404e-02 -5.39170299e-03 1.02328195e-03 -2.40199305e-02
      -7.17670750e-03 -1.72170736e-02 -2.80612591e-03 -6.27424428e-03
      -3.59532074e-03 1.60963815e-02 2.03169268e-02 0. 2.48146821e-02
      6.77296147e-03 2.02288777e-02 3.16524063e-03 9.92812566e-04
      -8.47581774e-03 1.52377095e-02 1.27419345e-02 -1.65993348e-02
      -1.58765633e-02 -1.74157023e-02 -1.40975444e-02 -7.14115147e-03
      -9.45226662e-03 -4.65565454e-03 3.87227884e-03 5.49315615e-03
      4.97914664e-03 7.01718614e-04 6.39609387e-03 6.54068263e-03
      2.88089481e-03 -9.41164698e-03 -1.38750230e-03 -1.47985788e-02
      -9.04073473e-03 -1.26668848e-02 -1.09943151e-02 -6.51165051e-03
      1.36801263e-03 1.18790765e-03 0. 2.35227179e-02 -1.35030067e-02
      -2.34880876e-02 -2.56309938e-03 8.02064035e-03 1.23370746e-02
      5.65250544e-03 -1.04756765e-02 -9.55335610e-03 -1.51743768e-02
      -3.30376849e-02 -9.44314152e-03 -5.53990761e-03 -1.36632668e-02
      6.25199685e-03 2.23478619e-02 2.11647656e-02 -8.28245189e-03
      -5.38499095e-03 -6.19869260e-03 2.23431317e-03 8.45455192e-03
      -1.27484708e-03 -3.06734000e-03 -8.54305085e-03 -7.42615899e-03
      -1.40565736e-02 -4.16307896e-03 -4.20655822e-03 -2.82975542e-03
      -8.61777272e-03 0. 4.35604481e-03 -1.23489415e-02 -1.24524003e-02
      -1.39386375e-02 -1.50735956e-02 -1.49070453e-02 -6.95496285e-03
      8.71291850e-03 1.33518400e-02 1.03348754e-02 1.13291135e-02
      2.11223681e-03 -1.07155964e-02 -1.03861522e-02 5.00781741e-03
      1.25408405e-02 5.10681281e-03 -1.16486242e-02 -1.98625773e-02
      -2.22372673e-02 -1.37497438e-02 -6.33471832e-03 2.82999780e-03
      5.36802132e-03 -3.52092413e-03 3.88258160e-03 -6.55516516e-03
      -4.25160024e-03 -1.26580661e-02 -8.93396232e-03 -4.90351534e-03 0.</_>
    <_>
      -1.55531568e-03 -6.64586900e-03 -2.02646628e-02 -9.69575904e-03
      1.78395454e-02 -9.77847073e-03 -6.41748216e-03 1.12618217e-02
      -1.01930685e-02 -1.90347824e-02 -5.10799792e-03 -3.96582782e-02
      -3.84416394e-02 -2.91991401e-02 -9.35493689e-03 -3.41501348e-02
      -2.01304462e-02 3.67083005e-03 1.51406846e-03 -1.29595445e-02
      1.41451955e-02 1.67970154e-02 2.71013342e-02 8.05770047e-03
      4.17127274e-02 1.80345494e-02 2.38459054e-02 5.72887622e-03
      1.12781897e-02 4.24073003e-02 6.09369203e-03 0. 2.10236199e-02
      9.63488314e-03 -8.14023521e-03 2.31596902e-02 3.07078790e-02
      3.95415351e-02 4.13862728e-02 5.21362089e-02 -2.54701674e-02
      -2.25897152e-02 -2.90910080e-02 -6.68741856e-03 -2.16327216e-02
      -2.89663617e-02 -2.49367254e-03 -1.92494088e-04 3.40949022e-03
      -5.82367997e-04 9.20949969e-03 2.03976892e-02 -2.50878488e-03
      -1.13365874e-02 -4.40323725e-02 -2.66951807e-02 -5.12512699e-02
      -6.20259568e-02 -1.62587147e-02 -9.57669225e-03 7.62200728e-03
      1.08168228e-02 9.43872519e-03 0. -2.76776478e-02 -1.80977862e-02
      -2.32973415e-02 -2.75351293e-02 -9.85230133e-03 -1.02627724e-02
      -2.26359032e-02 -2.70646834e-03 -1.78917851e-02 1.21891219e-02
      -9.14021861e-03 1.42362257e-02 1.90216955e-02 1.44515112e-02
      1.08390749e-02 3.12844329e-02 3.01822573e-02 1.02599571e-02
      5.31109702e-03 -6.27063168e-03 1.65229551e-02 1.66425575e-02
      -2.64362223e-03 9.91290901e-03 2.60444824e-03 4.54352051e-03
      1.25688538e-02 -2.29308265e-03 1.40116289e-02 1.97169278e-02
      -1.06380489e-02 -5.11472067e-03 1.52082341e-02 -1.95191766e-03
      -1.24840019e-02 -2.18699835e-02 -8.69586132e-03 4.08194074e-03
      -8.81392043e-03 -1.57191884e-02 4.33454523e-03 1.02846848e-03
      -2.15011034e-02 6.55063940e-03 2.48450190e-02 2.73120329e-02
      3.27934921e-02 9.68361273e-03 8.28255806e-03 -7.52362330e-03
      -2.08032839e-02 -2.69584134e-02 -1.39577314e-02 -3.57353762e-02
      1.80995334e-02 7.87114201e-04 -1.53254541e-02 -1.57982949e-02
      -3.34030315e-02 -1.77967828e-02 -1.46873388e-02 1.10203922e-02
      -2.54008528e-02 0.</_>
    <_>
      -3.73173365e-03 2.48709158e-03 -4.13067965e-03 -7.68027082e-03
      1.08927663e-03 -4.41430509e-03 2.60527199e-03 3.44512542e-03
      4.24728860e-05 3.09523940e-03 6.43539522e-03 -5.08577842e-03
      -6.60768768e-04 -2.31685210e-03 -7.76300346e-03 -8.02319497e-03
      -1.37413396e-02 -5.71194710e-03 -1.29911664e-03 -2.06343736e-03
      6.44277921e-03 4.34974441e-03 7.20682507e-03 -8.00042355e-04
      2.92875012e-03 4.28523310e-03 3.82587337e-03 -1.06238516e-03
      -7.47990981e-03 -5.48268110e-03 -5.45942737e-03 0. 2.86832489e-02
      4.74416744e-03 1.20199854e-02 -6.66553341e-03 -9.41132102e-03
      -2.46469537e-03 -1.67750486e-03 5.16120531e-03 -1.13860555e-02
      -6.67880708e-03 -4.17290162e-03 -5.83209097e-03 4.86405770e-04
      -2.42372137e-03 7.73618754e-04 8.49273521e-03 -5.33206621e-04
      -6.67186920e-04 -4.19180421e-03 -2.65609077e-03 -1.16372469e-03
      -4.56959615e-03 -1.46235991e-02 -6.81914025e-05 -2.19816435e-02
      -4.02989099e-03 -1.79021343e-04 -6.17428310e-03 1.69249214e-02
      5.82788000e-03 6.28993148e-03 0. 1.46701317e-02 4.71014949e-03
      2.97319028e-03 9.75266390e-04 2.87725171e-03 -1.12885879e-02
      -1.24049401e-02 -1.70058403e-02 -1.20186759e-02 -1.11533636e-02
      -8.35900754e-03 1.40233780e-03 1.28573170e-02 -1.89036261e-02
      1.18537508e-02 3.27661633e-02 2.04979908e-02 1.25176460e-02
      -5.65465959e-03 -1.18162362e-02 -1.83435753e-02 -7.06946710e-03
      -2.30250638e-02 -1.13669345e-02 -8.93778913e-03 -2.56859814e-03
      -1.91618060e-03 -2.95704743e-03 5.93670411e-03 5.06343460e-03
      6.79523684e-03 0. 1.97938620e-03 -9.64576658e-03 -1.14738727e-02
      -5.44108637e-03 -4.68418561e-03 -1.78873376e-03 -2.49816594e-03
      -8.58354979e-05 5.61481295e-03 -3.47691379e-03 -1.13872916e-03
      -6.89221872e-03 -4.49641189e-03 -4.35246248e-03 4.95019229e-03
      1.20364130e-02 8.41797423e-03 -4.12920816e-03 2.86905863e-03
      -1.35594867e-02 -1.13005349e-02 2.76811279e-05 1.29890386e-02
      9.52427799e-04 -1.45702232e-02 2.78451800e-04 9.78054572e-03
      -5.01762843e-03 -1.24602634e-02 -5.89552429e-03 -1.59086399e-02 0.</_>
    <_>
      -1.31943179e-02 -4.13268097e-02 -1.28313927e-02 -1.20232040e-02
      2.55180281e-02 7.33180065e-03 1.31237432e-02 8.34987033e-03
      2.56112497e-03 9.69612563e-04 3.49045894e-03 -8.80485494e-03
      -8.92136153e-03 -8.71437788e-03 -1.45393852e-02 2.31715641e-03
      -1.07049383e-02 -7.02493009e-04 -3.24150664e-03 1.00005744e-03
      2.29599839e-03 7.95869622e-03 8.50052293e-03 1.89297134e-04
      1.96695887e-03 2.78956210e-03 7.77106965e-03 3.20271240e-03
      1.25323664e-02 1.21259298e-02 1.82754435e-02 0. 2.38463469e-02
      -5.89467236e-04 -1.64528824e-02 -4.51964419e-03 3.37985170e-04
      1.27929952e-02 1.19118514e-02 1.11541338e-02 3.48955439e-03
      -1.04947877e-03 -4.19334928e-03 -8.69606249e-03 -2.44904147e-03
      -1.23104295e-02 -4.22409503e-03 2.35818559e-03 -1.81291718e-02
      -2.77051684e-02 -1.43335126e-02 -8.68226495e-03 1.09253032e-03
      4.58652666e-03 1.91461397e-04 1.57794226e-02 -1.45635176e-02
      -1.10603496e-02 1.21102445e-02 -4.07513184e-03 -3.85088986e-03
      1.99525747e-02 1.53319957e-02 0. -6.12278376e-03 -2.29953881e-03
      -1.13469530e-02 -6.06423756e-03 -5.66617004e-04 -9.06827860e-03
      -2.42969561e-02 9.20884218e-03 -3.76122370e-02 -1.64652113e-02
      -2.62486599e-02 -1.07234903e-02 4.49660746e-03 2.14487929e-02
      2.47508828e-02 3.47688906e-02 2.04376150e-02 -4.18201415e-03
      -1.99100133e-02 -4.05264795e-02 -8.09142087e-03 1.58149656e-02
      -6.87225955e-03 -1.06978426e-02 -7.58795626e-03 -4.37575532e-03
      -9.21212079e-04 3.56241036e-03 6.33051386e-03 5.80021180e-03
      9.33063496e-03 0. -9.08770692e-03 -1.06405122e-02 -2.09886376e-02
      -2.06740648e-02 -2.90887686e-03 -1.11088371e-02 -1.80746976e-03
      -1.23760588e-02 5.14258817e-03 7.08448468e-03 -3.37841325e-02
      -3.05812489e-02 1.72533076e-02 4.32637520e-02 1.99223720e-02
      3.48962955e-02 3.79106663e-02 -1.78300831e-02 -3.13654840e-02
      -4.01320271e-02 -2.84210686e-03 -5.61870541e-03 -1.46239193e-03
      -3.03067267e-02 -1.15842251e-02 -1.29372068e-02 2.95572337e-02
      1.92153687e-03 -1.63656622e-02 -3.90845444e-03 -8.96583870e-03 0.</_>
    <_>
      2.72416603e-02 6.15283474e-03 7.86105823e-03 1.23979580e-02
      -1.33210719e-02 4.12264504e-02 -4.35964391e-02 -4.31757942e-02
      1.32036523e-03 -3.42413522e-02 -1.05346292e-02 -1.88674871e-02
      -1.21097080e-02 -1.25997685e-04 0. 3.26357922e-03 -2.19482630e-02
      -4.30325978e-02 -2.09739041e-02 5.18526009e-04 -6.09923573e-03
      -2.89775450e-02 -1.60319209e-02 -2.72025745e-02 -1.76869193e-03
      -2.38514245e-02 -1.44910198e-02 1.03979995e-02 3.99425887e-02
      2.12312955e-02 2.98117734e-02 0. 1.29943946e-03 -6.42358279e-03
      -3.27404924e-02 -1.22356080e-02 -7.88838603e-03 9.44928825e-03
      8.47282354e-03 3.96495080e-03 -1.14196232e-02 -4.62956872e-04 0.
      -8.71694137e-05 1.30675861e-03 0. 1.60143047e-03 4.22913488e-03
      -6.52621221e-03 -1.41821476e-02 -6.64734934e-03 -1.66974291e-02
      -5.37050143e-03 1.59253774e-03 2.80259200e-03 3.70458774e-02
      -8.16602074e-03 -2.21113004e-02 2.51465384e-02 -4.67827022e-02
      -3.23649272e-02 3.85499597e-02 1.71606254e-03 0. -3.14496197e-02
      -3.30950618e-02 -8.30998877e-04 -3.13588716e-02 3.09722610e-02
      1.07781636e-02 -2.43808348e-02 -4.01284695e-02 -5.81057481e-02
      2.26632096e-02 -1.52679523e-02 -2.15247665e-02 3.74533758e-02
      -4.02016612e-03 8.34487453e-02 5.05982675e-02 3.33262607e-02
      -5.50484657e-03 -1.94489416e-02 -1.78923609e-03 -1.02926046e-02
      -2.18897779e-02 -8.52254312e-03 -7.19784573e-03 -1.65926553e-02
      -2.16951128e-02 -4.06609625e-02 -2.10705679e-02 -1.66424233e-02
      -2.30447706e-02 3.58312503e-02 0. 1.92026887e-02 -4.72142957e-02
      -1.44073628e-02 -1.76654290e-02 -2.49978923e-03 -6.47650659e-03
      -2.46089825e-04 1.46797989e-04 -6.01968402e-03 -3.76629224e-03
      -1.75020993e-02 9.88317002e-03 4.68201796e-03 1.89581346e-02
      4.79119755e-02 -2.89554112e-02 -7.22293695e-03 -3.66651081e-02
      -1.29757570e-02 -2.83185188e-02 -2.26279348e-02 -3.07543036e-02
      5.72355464e-02 4.94926125e-02 8.05606321e-03 1.97528303e-02
      -5.80988172e-03 8.87452532e-03 -6.05633575e-03 1.56326536e-02
      1.52063454e-02 0.</_>
    <_>
      4.76347245e-02 1.99476182e-02 -4.01691953e-03 -7.38089811e-03
      2.55938410e-03 -1.84685625e-02 -2.06923112e-02 -1.72277298e-02
      -1.30371666e-02 -8.59335996e-03 8.99947342e-03 -8.43788590e-03
      -1.06929438e-02 -1.74361672e-02 -1.87825058e-02 8.48164503e-03
      -1.14629027e-02 -1.89988930e-02 -2.77093165e-02 -1.39724696e-02
      1.80921741e-02 4.28874604e-03 2.57442793e-04 3.41623696e-03
      1.32800881e-02 -1.43823202e-03 9.63061024e-03 -2.04597693e-02
      -1.52916433e-02 -2.34582685e-02 3.10580470e-02 0. -3.33965919e-03
      -2.19294094e-02 2.57306336e-03 9.38442629e-03 1.46032982e-02
      9.99398343e-03 2.44062990e-02 2.24556364e-02 -7.16572767e-03
      -7.19105685e-03 -1.61366127e-02 -1.46543132e-02 -1.83793101e-02
      -2.36309282e-02 -7.20919250e-03 6.70684036e-03 -2.51062145e-03
      -1.66094974e-02 -1.56791396e-02 -6.49031205e-03 7.36096781e-03
      1.60962027e-02 7.99520407e-03 4.58688475e-03 -2.62956065e-03
      -6.56730821e-03 -1.71066616e-02 -3.33305150e-02 -2.04415079e-02
      -6.48602750e-03 -7.08875433e-03 0. -1.11605516e-02 -2.85202693e-02
      1.86481266e-04 -2.94108633e-02 1.12166870e-02 -1.41545124e-02
      -1.48640228e-02 -1.41208889e-02 -4.44088988e-02 -1.19049922e-02
      -2.28737462e-02 -3.23529443e-04 -2.03486648e-03 2.63333637e-02
      4.03049216e-03 2.97997016e-02 9.46289022e-03 2.25019245e-03
      -2.50782128e-02 -1.95806548e-02 -1.37176840e-02 2.89483834e-02
      -4.10643071e-02 -2.25542542e-02 -1.03272470e-02 -1.67379044e-02
      -1.32165831e-02 -1.34357475e-02 -4.39586723e-03 -1.03218257e-02
      -8.07545520e-03 0. 1.35885067e-02 -3.61311506e-03 -1.38648627e-02
      -1.02781290e-02 -1.01066791e-02 -1.56152006e-02 2.58150464e-03
      4.38021217e-03 9.00046248e-03 9.17260256e-03 -4.07081749e-03
      3.98253743e-03 -2.64135692e-02 -2.02959105e-02 2.33448762e-03
      2.41936315e-02 3.56357247e-02 1.51068307e-02 -2.27004886e-02
      -1.82645880e-02 -1.72434580e-02 -1.99587345e-02 1.49141373e-02
      5.06089209e-03 -6.41873851e-03 -1.63889676e-02 2.38258466e-02
      -3.87776224e-03 -6.74930029e-03 1.22081200e-02 -9.76839010e-03 0.</_>
    <_>
      -3.01387045e-03 -3.29080177e-03 -1.51802236e-02 3.42903398e-02
      -8.54405761e-03 -8.08177865e-04 -8.20625946e-03 -2.52183974e-02
      -1.34282531e-02 2.40422320e-03 1.66132208e-02 -1.72080249e-02
      -4.82914550e-03 -1.11669283e-02 -1.51963597e-02 -1.71452612e-02
      -3.89651358e-02 -3.53114344e-02 -5.76386694e-03 -9.39642545e-03
      1.95508543e-02 3.48209334e-03 2.63239313e-02 1.61270127e-02
      -1.80307601e-03 -1.35833491e-02 -2.19663959e-02 -6.45789923e-03
      1.73296165e-02 4.49466482e-02 1.30355812e-03 0. 2.83506569e-02
      1.31083801e-02 4.01772782e-02 -2.30651209e-03 -9.45994258e-03
      -1.28308227e-02 5.75953489e-03 2.40964163e-02 -4.99945646e-03
      -1.65092926e-02 -2.11472027e-02 -1.69959497e-02 -8.35917238e-03
      -9.10797506e-04 -1.35999650e-03 -9.01695993e-03 -7.70335225e-03
      -8.59328080e-03 1.43184676e-03 4.78656478e-02 -2.42608339e-02
      1.99823640e-03 -1.91163309e-02 -7.85283931e-03 -3.57674323e-02
      -1.62306223e-02 -2.61886194e-02 -1.14406860e-02 2.52334513e-02
      4.02443223e-02 3.83050814e-02 0. 3.42067815e-02 -1.97499357e-02
      -1.43828755e-03 -1.48178812e-03 1.34818191e-02 -3.30746137e-02
      -2.26239320e-02 -2.87920497e-02 -4.20709550e-02 -3.04937214e-02
      -8.65975022e-03 7.91401882e-03 -3.33270966e-03 1.32571254e-02
      6.29227757e-02 2.48125847e-02 3.01612560e-02 1.78463794e-02
      6.30672695e-03 -1.72771513e-02 2.56977091e-03 -1.67334394e-03
      -1.48712685e-02 -1.37399957e-02 -2.67544053e-02 -1.78773105e-02
      -2.14480031e-02 -1.66097488e-02 8.37109983e-03 6.22596638e-03
      -5.17259166e-03 0. -1.39535395e-02 -3.13242823e-02 -2.89011151e-02
      -1.19045097e-02 -5.32839738e-04 -5.00707421e-03 -7.21238181e-03
      4.53005731e-03 1.13506857e-02 1.09196445e-02 1.23691061e-04
      1.71015784e-02 1.89488083e-02 3.50311771e-02 4.40082699e-02
      -8.85917060e-03 -2.86796764e-02 -2.62779668e-02 -2.74923835e-02
      -7.28986552e-03 8.40855110e-03 3.00800502e-02 1.55376615e-02
      1.49687501e-02 1.02706754e-03 3.83855915e-03 -7.24229170e-03
      -5.73912915e-03 -8.08782224e-03 1.32091242e-04 -2.65944395e-02 0.</_>
    <_>
      3.55131365e-02 3.49072330e-02 -4.15002517e-02 -1.38409054e-02
      -1.40950375e-03 -4.89934273e-02 -2.75766011e-02 8.43786541e-03
      7.65360426e-03 4.71798666e-02 1.41236782e-01 3.86926457e-02
      1.20754302e-01 -1.74179953e-02 4.09770831e-02 -1.28811197e-02
      2.42327321e-02 -2.04715994e-03 -2.32250039e-02 -3.52928005e-02
      2.59233452e-02 3.21581401e-02 -3.13390535e-03 -1.77303366e-02
      2.47085914e-02 -5.50116934e-02 1.59305166e-02 5.09715751e-02
      -3.09769139e-02 2.72900853e-02 6.98153814e-03 0. 4.28423658e-02
      4.85327542e-02 2.46830117e-02 5.65891378e-02 3.41203623e-02
      9.98343062e-03 2.88625676e-02 -6.27179514e-04 -4.13142666e-02
      -7.84635693e-02 -2.27373056e-02 -1.15266152e-01 -3.80727500e-02
      4.55982573e-02 5.60544655e-02 -1.56341661e-02 3.61681767e-02
      1.11046575e-01 7.65034333e-02 3.65631804e-02 1.65918674e-02
      5.71215339e-03 -6.20571058e-03 -3.80759500e-02 -5.33520989e-02
      -3.46368104e-02 9.10651870e-03 -1.15751689e-02 1.34769091e-02
      -2.46750992e-02 3.09683233e-02 0. 6.44258559e-02 7.08602741e-02
      3.91107351e-02 -2.53347233e-02 -4.52692024e-02 2.02976651e-02
      1.69188567e-02 2.94873919e-02 3.09830066e-03 2.98229158e-02
      -1.35179777e-02 5.92902265e-02 3.22026834e-02 4.52292264e-02
      7.44947568e-02 1.58045031e-02 2.73812958e-03 1.03656296e-02
      -2.20297724e-02 -3.50194052e-02 -1.96069442e-02 2.89943330e-02
      -7.88631290e-03 2.34256275e-02 -3.31490003e-02 9.96287726e-03
      3.94364484e-02 -1.07830036e-02 8.08889642e-02 1.53718635e-01
      7.99284205e-02 0. -3.30258235e-02 -7.41122803e-03 -2.44223550e-02
      -2.70569939e-02 -3.32548134e-02 1.55777037e-02 2.14984789e-02
      6.33928105e-02 6.24539368e-02 1.32426377e-02 -2.56074443e-02
      -2.23069824e-02 -3.64024751e-02 -2.08887383e-02 -3.70188095e-02
      -3.88866924e-02 -2.82952767e-02 -3.75933759e-02 -4.48864326e-02
      -2.24469118e-02 -2.07769666e-02 -6.18326617e-03 2.53296383e-02
      6.39123619e-02 7.14491382e-02 5.02202772e-02 1.51676415e-02
      4.14646380e-02 3.96623043e-03 3.72291123e-03 -8.93176049e-02 0.</_>
    <_>
      -2.21102554e-02 -1.44910663e-02 -1.44405309e-02 -1.36265866e-02
      -1.23142190e-02 1.05865048e-02 3.02999355e-02 2.47677509e-02
      1.04670245e-02 1.74331083e-03 1.52571371e-03 -3.41465883e-02
      -3.13429087e-02 -1.98734961e-02 -3.99388485e-02 -2.79126167e-02
      -1.63713768e-02 1.92455072e-02 1.46057364e-03 1.38113406e-02
      1.66159421e-02 2.85800099e-02 2.71254517e-02 2.71194950e-02
      3.17802876e-02 3.02017834e-02 2.68012639e-02 3.45768481e-02
      3.09960544e-02 1.92228798e-02 -1.02430554e-02 0. -2.86047570e-02
      2.67546289e-02 1.67159326e-02 3.04223634e-02 2.69460510e-02
      3.86659391e-02 4.68364879e-02 1.40712867e-02 4.23260863e-05
      1.45467585e-02 -6.07640017e-03 -2.76076142e-03 -5.87219000e-03
      -8.55373405e-03 -8.12561717e-03 -6.65780506e-04 1.36087816e-02
      -5.87366475e-03 -5.37312822e-03 -6.02247752e-03 -6.49943808e-03
      -1.08612906e-02 -2.67477427e-02 -1.72668863e-02 -1.45541159e-02
      -1.02940090e-02 -2.82011973e-03 3.30152980e-04 7.39797251e-03
      -2.26551481e-03 9.41827055e-03 0. 2.55387113e-03 -2.22166106e-02
      -1.32610276e-02 -3.21306922e-02 -2.34921705e-02 -2.72115804e-02
      -2.48672732e-04 -1.49255591e-02 2.21507181e-03 -3.35918250e-03
      2.35083718e-02 3.18846591e-02 5.05270176e-02 -2.82560312e-03
      1.66675120e-04 1.72551852e-02 4.88869427e-03 1.93283800e-02
      -6.99812127e-03 1.00720916e-02 1.07970694e-02 9.24504828e-03
      9.12425108e-03 1.00957509e-02 2.39915196e-02 7.50291394e-03
      1.98776498e-02 3.39830779e-02 1.83849633e-02 6.71896711e-03
      -2.29342934e-03 0. -2.96894386e-02 1.34910597e-02 -4.75442037e-03
      -2.77272076e-03 -7.77107431e-03 -1.17217107e-02 2.22706534e-02
      2.17120480e-02 -1.01429373e-02 -8.64541810e-03 2.46340111e-02
      3.86374593e-02 1.70115791e-02 2.42777169e-02 -5.68163488e-03
      -1.75361726e-02 -1.18448492e-02 -2.52697840e-02 -9.83940437e-03
      -2.32314430e-02 2.11388916e-02 -2.00294722e-02 -5.34175383e-03
      -5.82502806e-04 1.80530678e-02 8.59345868e-03 -2.08090227e-02
      -1.35701150e-02 -3.13143171e-02 -2.83626020e-02 -3.06409076e-02 0.</_>
    <_>
      -1.49579290e-02 -9.09530837e-03 -1.71945821e-02 3.05512775e-04
      -2.68532941e-03 -1.01423990e-02 2.91639138e-02 5.98041154e-03
      1.22414939e-02 1.57548077e-02 1.72108840e-02 6.37139333e-03
      2.09542941e-02 -9.24664643e-03 -8.80838931e-03 -4.17526066e-03
      -1.82460295e-03 -1.62459258e-02 8.02710559e-03 1.11168027e-02
      1.86926220e-02 1.06634777e-02 2.93563097e-03 1.00149792e-02
      2.17351764e-02 7.85551965e-03 6.89053675e-03 7.17066368e-03
      -1.58911739e-02 -2.03279220e-02 -2.37548687e-02 0. 1.39699196e-02
      2.15499625e-02 2.26853844e-02 2.25752853e-02 1.50229968e-02
      3.84987844e-03 7.93202198e-04 4.08198498e-03 -8.57106317e-03
      -1.31794037e-02 -5.30892657e-03 -1.57309882e-02 -5.44614065e-03
      -4.08849353e-03 8.44222785e-04 -5.22000622e-03 9.91121121e-03
      1.17340256e-02 1.44761531e-02 1.32737390e-03 -1.06456494e-02
      2.10834462e-02 1.19452446e-03 -1.54308872e-02 -4.64730710e-03
      9.00593877e-04 -8.11948627e-03 6.79335883e-03 7.60582136e-03
      6.21612091e-03 -3.86563176e-03 0. 4.30637859e-02 2.77401637e-02
      1.77041180e-02 -1.29208658e-02 1.19272945e-02 -1.24552269e-02
      1.66220951e-03 -1.87246352e-02 -1.45686744e-02 -6.97509525e-03
      -7.13916542e-03 -5.83134359e-03 3.80977504e-02 -9.68299899e-03
      4.38082255e-02 2.12210026e-02 3.38746086e-02 6.83461176e-03
      -1.55445794e-02 -7.21707335e-03 -2.33087633e-02 -4.35681827e-02
      -4.63008657e-02 -2.85757296e-02 -1.01155806e-02 -1.09433746e-02
      4.54505486e-03 2.19078641e-02 2.08834819e-02 4.13083769e-02
      3.03669311e-02 0. -1.72306411e-02 5.41016343e-04 -7.30135385e-03
      -1.62182562e-03 -1.14723919e-02 -2.40365341e-02 -8.71766079e-03
      1.16670579e-02 1.78441629e-02 1.94452051e-03 -1.37393316e-02
      4.40012882e-05 -7.56572757e-04 -1.33552505e-02 -4.14427333e-02
      2.02417505e-04 8.96694325e-03 -9.34907980e-03 1.28754219e-02
      -5.92959113e-03 2.47859163e-03 3.35683906e-03 2.58010011e-02
      2.43451335e-02 2.41177883e-02 1.08933290e-02 -7.03736953e-03
      5.45193953e-03 -5.00024073e-02 -1.04244798e-02 -3.43774334e-02 0.</_>
    <_>
      -2.55841780e-02 -3.42367031e-02 -1.79711971e-02 -7.39043159e-03
      9.57709737e-03 2.92892382e-02 2.32230742e-02 2.64287032e-02
      1.68183092e-02 1.00880917e-02 -8.76535545e-04 -1.68821949e-03
      9.65231098e-03 5.40742709e-04 -6.01611473e-03 -1.97788831e-02
      1.70919602e-03 -1.04131382e-02 2.86302809e-03 -1.96491089e-02
      2.26586126e-03 1.60130840e-02 1.60635374e-02 2.84363590e-02
      2.55465079e-02 1.52734723e-02 2.86368579e-02 2.49587558e-02
      1.76195540e-02 4.32865229e-03 -3.89905237e-02 0. -1.93082746e-02
      2.71009877e-02 1.89802498e-02 1.36638833e-02 2.08335258e-02
      1.76317338e-02 2.00439282e-02 1.59352075e-03 -1.60376821e-03
      -7.30870804e-03 -1.26615698e-02 -5.41484961e-03 -2.02221628e-02
      -5.55135170e-03 -7.50939595e-03 -1.27387643e-02 6.76447339e-03
      -8.47262237e-03 -9.95961204e-03 7.76678650e-03 1.77386347e-02
      1.19531406e-02 1.90140270e-02 -1.46460645e-02 -6.29432453e-03
      6.35397574e-03 -9.25604440e-03 -1.55095244e-02 -2.92642624e-03
      -9.25790984e-03 2.46922998e-03 0. 2.87786555e-02 3.07707372e-03
      1.61167961e-02 -5.24880644e-03 -1.55584319e-02 -2.57793684e-02
      -1.01291733e-02 -1.35530382e-02 -7.84914475e-03 -1.84024423e-02
      5.93924196e-03 -3.62064480e-03 2.55103372e-02 2.51846034e-02
      1.27459541e-02 2.59542540e-02 9.72612482e-03 -1.03009352e-03
      -6.53160317e-03 1.31736696e-02 1.00981863e-02 -8.74069706e-03
      -2.62173766e-04 -7.51260063e-03 -1.98058365e-03 1.39207987e-03
      8.10585637e-03 1.36905033e-02 2.46667266e-02 1.45486929e-02
      2.48025618e-02 0. -9.32210218e-03 -3.60203860e-03 -1.49604240e-02
      -1.16324909e-02 -1.97277451e-03 -2.60098488e-03 1.21275969e-02
      7.15250196e-03 7.01128738e-03 9.76175349e-03 2.01714877e-02
      4.76843724e-03 4.40116128e-04 -5.34184230e-03 -2.07834803e-02
      3.71971470e-03 -6.94224471e-03 3.50150210e-03 2.65116640e-03
      -1.48199489e-02 8.12499970e-03 -7.07030948e-03 -1.41582694e-02
      -1.06376456e-02 7.26213492e-03 -1.77594367e-03 -9.11997631e-03
      5.50409826e-03 -1.44589590e-02 -1.19370939e-02 -3.06268260e-02 0.</_>
    <_>
      2.24916767e-02 -3.71818505e-02 4.39555123e-02 -2.85477135e-02
      -1.78282540e-02 -2.11642869e-02 -2.86394805e-02 -5.83233945e-02
      -3.33868079e-02 -1.51556283e-02 -1.34371861e-04 5.31518422e-02
      -2.51631085e-02 -2.94489991e-02 -1.38560776e-02 -2.60679219e-02
      2.47669648e-02 -2.46840473e-02 -3.31067517e-02 2.58888267e-02
      3.86387110e-02 -4.89618480e-02 3.56533527e-02 7.43472110e-03
      6.72610290e-03 -6.94665760e-02 -6.24477258e-03 2.45827511e-02
      1.08373761e-01 6.70393705e-02 7.40039572e-02 0. -4.54606190e-02
      -4.34018224e-02 -1.72049180e-02 -2.82011111e-03 8.33195820e-03
      -5.43905515e-03 -2.51375828e-02 -7.37922490e-02 -2.41710828e-03
      2.52683312e-02 9.14900005e-02 3.03168241e-02 1.20456837e-01
      8.37431848e-02 7.00674132e-02 3.95315960e-02 8.48776102e-02
      -4.15962525e-02 -8.45942497e-02 1.91514120e-02 -7.82313049e-02
      4.79431115e-02 2.39880290e-02 3.53749879e-02 2.92206556e-03
      8.34313780e-02 1.54086407e-02 9.81656834e-03 -8.93711150e-02
      -5.20862602e-02 -2.95844991e-02 0. 3.84894982e-02 4.83465344e-02
      2.45760866e-02 1.20526209e-01 -5.11966497e-02 3.07496861e-02
      -4.21089260e-03 -2.15347148e-02 -5.38973697e-03 6.07861846e-04
      5.31067811e-02 9.57094729e-02 6.11126758e-02 6.96000978e-02
      8.43188986e-02 5.48349544e-02 4.38440740e-02 1.83415897e-02
      3.33258845e-02 4.63455655e-02 -3.43344137e-02 6.23531565e-02
      8.38732449e-05 2.74826363e-02 -7.24280253e-02 2.52628643e-02
      -1.79374299e-03 1.70101877e-02 1.23882592e-02 2.23992877e-02
      5.21725006e-02 0. 4.34829816e-02 -6.81834966e-02 -2.97676995e-02
      3.70799215e-03 -2.70167794e-02 6.06774054e-02 2.42904145e-02
      1.75680779e-02 -8.04948807e-02 -2.74708457e-02 -1.53290704e-02
      4.32699621e-02 -7.62662245e-03 -2.28751823e-02 -4.63876277e-02
      -8.20619240e-02 -6.91336319e-02 -6.50934801e-02 -4.33440246e-02
      -4.15613540e-02 2.52248696e-03 -1.83907105e-03 2.72043478e-02
      7.97081217e-02 1.20490924e-01 3.86700369e-02 -3.84841338e-02
      7.11333454e-02 3.42637748e-02 1.95409656e-02 3.30700651e-02 0.</_>
    <_>
      -1.90820377e-02 -8.77294838e-02 2.12587100e-02 -3.88598107e-02
      3.72899696e-04 -1.00426450e-02 -2.01724581e-02 -2.99580898e-02
      3.06530437e-03 -4.45577651e-02 -6.64386712e-03 -1.27158463e-01
      7.73484781e-02 -1.71095014e-01 -7.30744451e-02 -4.29056846e-02
      5.28426170e-02 9.40043107e-03 1.43551026e-02 -1.74713265e-02
      -4.94120829e-02 6.49648979e-02 4.48907539e-02 4.87910025e-02
      7.84951076e-02 -3.30550410e-02 -3.05193309e-02 -7.06482306e-02
      -2.51061209e-02 -5.95024601e-02 -8.18273425e-02 0. 4.08990569e-02
      -1.89612433e-02 3.01856510e-02 6.10305816e-02 5.74611910e-02
      1.46199390e-02 6.74663857e-02 1.80111844e-02 -2.33324170e-02
      8.86550173e-03 4.94126556e-03 -1.91457551e-02 2.02111453e-02
      -9.69077349e-02 4.58466820e-02 -8.10750499e-02 -8.13097786e-03
      4.23928648e-02 -2.26586778e-02 -5.11469087e-03 1.43071478e-02
      4.98770513e-02 5.23629487e-02 2.50175893e-02 -1.33391777e-02
      3.16052116e-03 -7.64302090e-02 -7.59758726e-02 -1.72926337e-02
      -5.81995137e-02 2.40549110e-02 0. 3.64721008e-02 -8.40974972e-03
      4.50535193e-02 3.65383662e-02 -9.48607549e-02 -4.81073447e-02
      1.50299969e-03 1.55218947e-03 -6.30616304e-03 -5.65735511e-02
      9.03066539e-05 2.88126841e-02 4.37087603e-02 1.95404198e-02
      5.61103299e-02 -1.09914225e-02 1.19491257e-02 -1.12940269e-02
      -5.90294190e-02 7.09164655e-03 1.26496116e-02 -5.22185229e-02
      -2.67906133e-02 -6.48011640e-02 -2.86302343e-02 -4.12279926e-02
      2.21636873e-02 1.69797137e-01 -1.11120641e-02 1.34395445e-02
      -2.95803268e-02 0. -5.76729700e-02 -3.72719020e-02 2.31832433e-02
      1.25848958e-02 -5.62175810e-02 -3.14510949e-02 2.42196452e-02
      2.02078205e-02 3.50825079e-02 1.04166560e-01 5.15201241e-02
      -2.91926973e-02 -4.85292785e-02 -7.60595873e-02 -2.15462577e-02
      -4.11899900e-03 2.55171228e-02 -4.36009467e-02 -3.36853266e-02
      1.69860795e-02 1.40222050e-02 1.68441683e-02 -5.37061915e-02
      9.95270349e-03 1.44902384e-02 3.26014124e-02 1.05452567e-01
      1.50617911e-02 4.09489125e-02 -1.00657873e-01 -6.77065626e-02 0.</_>
    <_>
      -1.27015682e-02 -2.76714247e-02 2.09353920e-02 -1.68902278e-02
      2.79603363e-03 -1.78460330e-02 -7.70686194e-04 4.48859617e-04
      -4.95292339e-03 3.71586196e-02 1.26253292e-02 -1.70345120e-02
      1.22542158e-02 -2.68697999e-02 -1.01824068e-02 -3.86099368e-02
      -4.31404728e-03 -2.25291476e-02 -1.23623842e-02 -6.84361672e-03
      9.43573005e-03 2.20053606e-02 2.38594562e-02 1.29373651e-02
      2.92688366e-02 1.00225639e-02 1.01100607e-02 1.57686546e-02
      3.42237540e-02 -9.14826337e-03 -1.98973306e-02 0. -5.83707495e-03
      1.24157742e-02 1.65377185e-02 2.66175643e-02 1.17209647e-02
      2.41812859e-02 2.03905273e-02 -1.07642030e-03 2.34721750e-02
      -2.16101520e-02 -3.69024766e-03 -1.59571227e-02 4.98508429e-03
      -1.24274567e-02 -2.56716949e-03 -1.64363033e-03 1.09261554e-02
      1.00605236e-02 -4.22322657e-03 -7.25383032e-03 1.99339055e-02
      8.40202067e-03 2.44056550e-03 -2.24839803e-02 -2.08843928e-02
      -1.84414443e-02 -7.55831040e-03 -1.09191407e-02 5.60072856e-03
      -1.94695918e-03 3.42771672e-02 0. 2.52481271e-02 9.84162744e-03
      1.84835996e-02 -5.08475630e-03 -3.55080552e-02 -1.85775552e-02
      -3.69020067e-02 8.80926568e-03 -4.23154682e-02 -2.00119317e-02
      1.43037979e-02 3.05186268e-02 1.59727111e-02 2.07007825e-02
      3.65835913e-02 1.07485801e-02 3.48340571e-02 -9.10442974e-03
      4.12918860e-03 -1.27554880e-02 8.38176161e-03 -1.50055522e-02
      -2.07733586e-02 -1.31827081e-03 -8.94099195e-03 -1.61677077e-02
      -1.83304455e-02 1.47865424e-02 1.36228623e-02 1.50071401e-02
      2.02268977e-02 0. -2.39572581e-02 -4.06331010e-03 -2.21467800e-02
      -3.20677310e-02 -1.64310485e-02 1.30864875e-02 3.92114231e-03
      -9.74356942e-03 2.54586134e-02 1.35758016e-02 1.23457108e-02
      4.42891642e-02 5.89455068e-02 4.43222187e-02 -2.91257519e-02
      -3.61182950e-02 -4.57934290e-02 -4.64268252e-02 -1.77807156e-02
      -1.03911757e-02 6.49494724e-03 2.81125959e-02 1.99418720e-02
      2.37151179e-02 3.46443951e-02 7.03232782e-03 -5.70933381e-03
      6.59583556e-03 -1.34972520e-02 -2.45062187e-02 -1.62332952e-02 0.</_>
    <_>
      -3.87950870e-03 -5.38517395e-03 -6.79499889e-03 -1.92608200e-02
      7.73501955e-03 1.56041477e-02 3.55560742e-02 2.93530319e-02
      -8.54627974e-03 -2.33265432e-03 -1.93195175e-02 -1.68135948e-02
      -2.37948876e-02 -1.77478939e-02 -3.27027701e-02 -2.79167313e-02
      -2.85127517e-02 -1.53181171e-02 1.08863618e-02 5.88556984e-04
      -3.60522792e-03 3.98270674e-02 2.13229544e-02 2.83655468e-02
      3.72870788e-02 2.63024010e-02 3.66115128e-03 1.03536732e-02
      3.17653525e-03 -2.66900589e-03 -2.10535675e-02 0. -3.28017101e-02
      -7.65875494e-03 -8.03461391e-03 -1.94524101e-03 1.46494349e-02
      3.91223952e-02 3.39725278e-02 1.49241919e-02 1.76785188e-03
      1.77217741e-02 1.85005330e-02 1.45284971e-02 1.93257944e-03
      -6.21975074e-03 -2.26542987e-02 -9.60315287e-04 -1.18094794e-02
      -9.05965734e-03 -1.20366551e-03 -3.33512272e-03 2.76451875e-02
      -1.72511563e-02 -1.73070710e-02 -9.11522284e-03 -1.38416747e-02
      -6.98688300e-03 -8.59692518e-04 1.34939803e-02 2.42807646e-03
      -2.46044190e-04 3.76259652e-03 0. -1.34910140e-02 -9.99339297e-03
      -2.18967572e-02 -3.23750786e-02 -1.67338010e-02 -2.38816421e-02
      -1.14505878e-02 -1.27794836e-02 -9.40778852e-03 2.05790568e-02
      3.46196666e-02 3.09586190e-02 3.89282741e-02 2.11791322e-03
      1.04770102e-02 -5.41411899e-03 -2.33542211e-02 1.37836393e-02
      5.95379062e-03 3.56080127e-03 1.30490831e-03 -6.22495264e-03
      1.57094039e-02 1.72071643e-02 2.96281539e-02 2.34196875e-02
      2.69144103e-02 1.14275487e-02 1.72339380e-02 -6.00602524e-03
      -2.09874623e-02 0. 3.97073012e-03 1.91530082e-02 1.78854149e-02
      3.56745385e-02 1.51590826e-02 2.16027293e-02 1.41632436e-02
      -1.89836826e-02 3.59198195e-03 -7.55140092e-03 -2.83769495e-03
      1.60509739e-02 1.83155723e-02 3.19792740e-02 1.53581323e-02
      3.95521708e-03 -5.32276649e-03 -1.30325640e-02 9.77408048e-03
      5.40471775e-03 2.03583054e-02 -1.72403064e-02 3.39847495e-04
      -8.45840666e-03 -1.40099674e-02 -2.32275464e-02 1.40403807e-02
      2.28063902e-03 -1.06310472e-02 -1.87607959e-03 -1.34972492e-02 0.</_>
    <_>
      -1.07460149e-01 -4.33020061e-03 -1.49696984e-03 8.00111797e-03
      1.65865254e-02 4.23455425e-02 1.09347917e-01 7.18243793e-02
      5.27933799e-02 3.33653614e-02 1.89885143e-02 -4.20595333e-02
      -4.18085344e-02 -7.83411339e-02 -5.95211983e-02 -3.70140770e-03
      -1.03037164e-01 -5.07250428e-02 3.49219143e-02 -1.85728502e-02
      1.84176099e-02 5.73670082e-02 1.85459796e-02 4.89852540e-02
      1.11654140e-01 -1.90089531e-02 6.40125275e-02 3.44447419e-03
      -4.59288768e-02 -4.61511314e-02 -5.37781902e-02 0. 1.23638362e-02
      1.24743562e-02 -3.04153562e-02 3.92455868e-02 -4.10977788e-02
      -5.19205816e-02 -3.13220434e-02 -2.26980988e-02 -1.08405966e-02
      -5.93121722e-03 -4.37838435e-02 -1.05600115e-02 -2.53528804e-02
      -2.71612871e-02 -5.63747585e-02 8.44574906e-03 -4.48071510e-02
      1.15251373e-02 -3.98523808e-02 -5.93315884e-02 -5.52807488e-02
      -7.54217850e-03 -2.89260093e-02 -2.91443523e-03 -2.19383128e-02
      -2.45479140e-02 -3.24892364e-02 3.99010256e-02 6.97494596e-02
      6.10310677e-03 -5.55919409e-02 0. 3.69669423e-02 6.54015243e-02
      7.44630247e-02 -9.02740657e-02 7.57377502e-03 -2.76661813e-02
      -7.41381496e-02 -6.07507154e-02 -1.40548274e-02 -1.88210905e-02
      4.68626432e-03 -3.93501557e-02 4.88940254e-02 -3.97461234e-03
      3.87589671e-02 1.46107703e-01 9.16583091e-02 1.04596920e-01
      1.76980844e-04 1.12937260e-02 -2.20141094e-03 -3.70010957e-02
      -8.81964490e-02 -7.02416152e-02 -9.55021605e-02 -4.66524661e-02
      5.66681549e-02 1.04996361e-01 4.13857624e-02 4.10511717e-02
      9.92451794e-03 0. -7.28584304e-02 2.24406477e-02 2.69752555e-02
      4.23333980e-02 -3.58016193e-02 3.18582281e-02 4.08683494e-02
      -3.36859599e-02 -1.90943703e-02 1.66942850e-02 5.04792407e-02
      -2.34240387e-02 1.34611521e-02 -3.72542143e-02 -7.40484474e-03
      6.18885458e-02 6.99069947e-02 -1.24913640e-03 4.76197749e-02
      1.05658323e-02 2.02436536e-03 -6.28337293e-05 3.71934250e-02
      1.23075340e-02 -3.53057981e-02 -4.38298695e-02 2.85369325e-02
      -4.22270074e-02 -7.59738088e-02 3.86003703e-02 -9.36910883e-02 0.</_>
    <_>
      -1.96730718e-02 -2.62332186e-02 -1.73152965e-02 -1.75756495e-02
      2.71245185e-03 2.75995843e-02 1.65088214e-02 2.31032055e-02
      6.89878920e-03 6.23207074e-03 -4.91713779e-03 -4.73687891e-04
      -8.79337837e-04 6.32362033e-04 -5.85868210e-03 -6.90486748e-03
      -9.48336162e-03 -9.86505300e-03 -3.22411768e-03 -2.30894610e-02
      1.11735063e-02 1.30646070e-02 1.89016890e-02 2.29222532e-02
      2.09763572e-02 2.02380568e-02 1.38371522e-02 1.17873130e-02
      5.15921926e-03 4.71904036e-03 -1.86275952e-02 0. -1.86097585e-02
      -8.39469582e-03 1.47396568e-02 -1.14500045e-03 7.01655541e-03
      1.17565803e-02 2.18493957e-02 6.79383194e-03 1.54219074e-02
      7.15006702e-03 -3.48295347e-04 3.91873950e-03 -2.26155692e-03
      -8.67597200e-03 -2.03309599e-02 -1.24316178e-02 -2.40845438e-02
      -2.16425732e-02 -5.78180887e-03 -5.42365760e-03 9.12202336e-03
      8.89999513e-03 8.62964056e-03 6.15053903e-03 -2.23061070e-03
      1.22922519e-02 4.22907434e-03 -2.05669366e-03 -5.51372115e-03
      -6.71138242e-03 -2.66605020e-02 0. 1.17182219e-02 1.04341758e-02
      2.02856418e-02 5.58582973e-03 -1.20300958e-02 -1.18493959e-02
      -3.18047814e-02 3.08608217e-03 -7.78679317e-03 3.74663714e-03
      -9.12698172e-03 -9.97633673e-03 2.24848818e-02 2.56986357e-02
      6.81674574e-03 2.65042973e-03 1.12432241e-02 -7.99706485e-03
      -1.66909932e-03 5.87934395e-03 5.12710726e-03 -6.31234609e-03
      3.98116373e-03 1.05535053e-03 -1.68224098e-03 2.02006008e-03
      3.87823954e-03 5.08155557e-04 1.03056924e-02 1.04232067e-02
      -1.99481286e-03 0. 1.63720474e-02 2.07757391e-03 4.85480856e-03
      1.06302714e-02 -6.37859479e-03 1.03990305e-02 -1.73704757e-03
      -8.97391140e-03 6.99535478e-03 -4.26245108e-03 -2.58241943e-03
      4.44124779e-03 1.30938394e-02 8.66278168e-03 1.53477406e-02
      1.99591927e-02 7.17836153e-03 6.29106769e-03 -1.51983823e-03
      1.83771700e-02 -2.19672755e-03 -9.54552554e-03 -1.22141943e-03
      -1.70267001e-02 -1.31587032e-02 3.73071828e-03 6.85909111e-03
      -8.85345391e-04 -9.29148591e-05 6.93233637e-03 -9.16169677e-03 0.</_>
    <_>
      -1.31893260e-02 -2.78601144e-02 2.75300276e-02 1.37168681e-02
      5.43439873e-02 7.94561207e-02 -5.05457306e-03 -3.30147594e-02
      -4.60578874e-02 -4.02900837e-02 -6.72541559e-02 -6.96486533e-02
      -2.00434774e-02 -1.76358148e-02 -3.74808498e-02 -7.47023225e-02
      -1.27757154e-02 -4.86330763e-02 -2.29343772e-03 2.60239076e-02
      -2.27222294e-02 -2.99830623e-02 -2.95199603e-02 1.09858708e-02
      -5.47368778e-03 -3.00666336e-02 -5.61022982e-02 1.22896560e-01
      -4.38495353e-02 2.34696567e-02 1.44673055e-02 0. -1.05399795e-01
      -2.86739077e-02 -2.56467331e-02 4.25875373e-03 3.74746583e-02
      2.40377542e-02 -3.03866416e-02 -2.49828547e-02 4.66136336e-02
      7.48044178e-02 7.53012821e-02 9.98579338e-03 6.87535061e-03
      9.34175588e-03 3.11575551e-03 -1.42618716e-02 4.27157385e-04
      -3.63161452e-02 7.98844080e-03 -6.41058385e-02 -1.40295587e-02
      3.83116566e-02 5.63817918e-02 4.45324108e-02 4.12178300e-02
      3.21297869e-02 9.46517941e-03 -1.54760703e-02 3.50069739e-02
      6.75260574e-02 -2.22916938e-02 0. -1.04606248e-01 -4.01047915e-02
      4.20200713e-02 1.21442623e-01 -2.76937913e-02 5.22947987e-04
      -1.12000845e-01 -4.98545505e-02 -3.23555097e-02 6.72527589e-03
      -7.35409558e-03 4.76885699e-02 1.16792135e-01 -1.98985357e-02
      1.27097676e-02 1.60994772e-02 2.78431941e-02 6.96107820e-02
      -2.08554231e-02 8.13633353e-02 -4.59973840e-03 6.85384730e-03
      -2.65690740e-02 -2.53377296e-03 3.86743024e-02 -8.31985399e-02
      8.36770311e-02 8.57470091e-03 -4.65571694e-02 -6.78475499e-02
      -5.21865338e-02 0. 1.28218085e-02 4.68272995e-03 -3.50401700e-02
      9.51861776e-03 3.46627347e-02 1.40942615e-02 2.36956086e-02
      -2.86854915e-02 -1.79343820e-02 2.65880469e-02 -4.05537151e-02
      3.33556086e-02 1.28038554e-02 1.60576090e-01 -1.08191930e-02
      2.62511671e-02 -6.85842708e-02 -2.71654800e-02 -1.69586018e-02
      -2.38868725e-02 -2.32780781e-02 -4.22130860e-02 1.93114337e-02
      -3.13210301e-02 2.22704466e-02 -7.50370277e-03 9.93913040e-02
      9.32441056e-02 3.24713551e-02 -4.96168397e-02 -5.57929948e-02 0.</_>
    <_>
      -1.90906227e-02 -5.51438965e-02 9.73121170e-03 -3.64700216e-03
      1.40633276e-02 1.05066225e-02 1.09452615e-03 2.49527451e-02
      -4.17666994e-02 -4.00558002e-02 -8.70264918e-02 -6.78583607e-02
      -7.73082897e-02 -6.30408823e-02 -8.39538202e-02 -4.56156284e-02
      -4.42822725e-02 -6.89905584e-02 -1.22353307e-03 -1.10918540e-03
      -7.24897301e-03 3.45436782e-02 -1.02543803e-02 3.00929528e-02
      1.68001838e-02 6.39159009e-02 -3.47917266e-02 -1.88485775e-02
      -3.00173033e-02 -4.88250330e-02 -4.90209423e-02 0. -6.74688369e-02
      -2.63328850e-02 -6.77081058e-03 -3.46571729e-02 -3.35417222e-03
      8.71932541e-04 5.17756455e-02 6.57310486e-02 3.56162377e-02
      6.11494258e-02 4.55966331e-02 3.22276205e-02 -5.56433573e-03
      1.19014904e-02 -4.45847735e-02 -5.75737804e-02 -6.02880716e-02
      -6.95230290e-02 -5.70866875e-02 -6.87667057e-02 4.33678768e-04
      3.21138911e-02 2.04980299e-02 1.54620828e-02 9.44131985e-03
      2.99085135e-04 9.38621163e-03 1.02518126e-02 -2.42790543e-02
      -1.16489520e-02 -5.08356355e-02 0. -5.39976098e-02 -2.30913181e-02
      1.40116122e-02 -3.12354490e-02 -4.36631814e-02 -1.35626588e-02
      -2.19868720e-02 -2.67039537e-02 -2.03226712e-02 3.93314613e-03
      8.96364637e-03 -1.11055956e-03 1.42375873e-02 -2.38536345e-03
      3.20774354e-02 3.06900940e-03 -1.75384339e-02 2.22650109e-04
      -2.00060289e-03 -4.53415699e-03 -2.00733729e-02 -2.15770062e-02
      -1.60107799e-02 4.49837535e-04 -2.15782411e-02 -1.40918866e-02
      -2.41855364e-02 1.37400795e-02 -1.58225000e-02 -6.85819760e-02
      -7.61360526e-02 0. 3.08874100e-02 -6.29057223e-03 4.48069237e-02
      2.78100483e-02 -3.23100537e-02 -1.92378405e-02 -2.57179607e-02
      -2.68172696e-02 1.04656033e-02 1.59111191e-02 1.94596965e-02
      1.75343063e-02 9.39312950e-03 2.81727538e-02 -1.81734897e-02
      -1.25902588e-03 1.35773309e-02 3.07512805e-02 2.32015457e-02
      1.37621919e-02 1.69344116e-02 -9.89385787e-03 -2.22096257e-02
      -3.31899314e-03 -3.57163511e-02 -1.33077949e-02 4.83691692e-02
      2.10225489e-03 4.83436882e-03 2.09047161e-02 -3.83225246e-03 0.</_>
    <_>
      5.72572742e-03 1.82176160e-03 1.82506337e-03 6.72258530e-03
      9.20047052e-03 1.39838560e-02 -1.35737890e-02 1.45182582e-02
      -2.96817720e-02 2.69607990e-03 -3.28657590e-02 -5.47658354e-02
      -3.24744806e-02 -2.84726303e-02 -7.54722506e-02 -6.69333786e-02
      -2.45536659e-02 -9.04872715e-02 -7.33678183e-03 -2.41186637e-02
      -7.69655965e-03 2.60344371e-02 3.30442488e-02 2.66704783e-02
      6.13440350e-02 6.27555698e-02 -1.76468641e-02 3.26936617e-02
      1.40149910e-02 -5.04640378e-02 -7.70475641e-02 0. -6.01413473e-02
      4.89474449e-04 1.18202856e-02 -5.20470412e-03 4.25274223e-02
      1.65461749e-02 2.38713771e-02 2.85849478e-02 2.83122174e-02
      2.83310674e-02 1.71689615e-02 1.42805455e-02 -3.37559590e-03
      -1.79491770e-02 -2.77805179e-02 -3.72944213e-02 -6.09846152e-02
      -2.01732554e-02 3.58399786e-02 -4.52224677e-03 5.93485832e-02
      -4.21072841e-02 -2.58277226e-02 -3.48323360e-02 -4.15336387e-03
      -2.72543393e-02 -6.45679981e-02 7.03744069e-02 -7.71609659e-04
      -3.43525335e-02 -8.30786955e-03 0. 1.06981248e-02 8.94419197e-03
      5.77944284e-03 2.36731721e-03 -1.40727283e-02 1.10124955e-02
      -1.06278703e-01 -2.07998846e-02 -3.84233184e-02 -3.71455848e-02
      6.36094157e-03 1.28402701e-02 -1.30602736e-02 2.33514607e-02
      5.85556263e-03 1.75996795e-02 1.69084873e-02 5.55674583e-02
      5.36633953e-02 3.85196274e-03 -2.85573216e-04 3.72415152e-03
      -6.82308599e-02 3.30356434e-02 -1.16335955e-02 -2.62019355e-02
      -4.19296362e-02 2.76977825e-03 -2.32510809e-02 -7.02209771e-02
      -5.98011799e-02 0. -2.45790258e-02 -1.83395052e-03 4.16207612e-02
      2.86967475e-02 -2.31796149e-02 2.82929782e-02 8.22825823e-03
      -2.28917133e-02 3.36842537e-02 -2.44871788e-02 2.70693693e-02
      -6.07055379e-03 6.74406216e-02 6.45168424e-02 -3.73576768e-03
      -3.35104316e-02 -5.55433780e-02 -5.11377677e-02 -1.24919424e-02
      -1.42895421e-02 2.83959620e-02 6.12329058e-02 4.47162502e-02
      4.28016819e-02 -6.44599600e-03 -4.62475754e-02 1.51823368e-02
      7.85660988e-04 -6.96589844e-03 -5.11050746e-02 -2.76814699e-02 0.</_>
    <_>
      -1.23341596e-02 -1.84959155e-02 7.58383377e-03 1.78292450e-02
      2.28617596e-03 5.49642928e-03 -1.79083273e-02 -7.42216501e-03
      4.60061105e-03 4.71195177e-04 7.18669593e-03 7.04065571e-03
      9.91088431e-03 3.60028353e-03 1.82929486e-02 2.01876499e-02
      1.04365880e-02 9.25263856e-04 7.82409031e-03 2.59895418e-02
      8.87735747e-03 -1.66398217e-03 1.37328692e-02 -4.29429719e-03
      -5.73558966e-03 5.30098274e-04 1.88928246e-02 -2.73393444e-03
      -2.33213156e-02 -2.43084952e-02 3.28285620e-03 0. 2.59265099e-02
      1.49314925e-02 1.20234983e-02 1.22024240e-02 -1.32399313e-02
      -2.61991634e-03 -2.31723376e-02 -1.52892680e-04 1.12952637e-02
      -4.75215307e-03 5.52009000e-03 -9.87678673e-03 -3.42158554e-03
      1.19707324e-02 7.95255322e-03 3.93654872e-03 -1.30181434e-03
      9.95672960e-03 1.50358370e-02 5.54239238e-03 1.16275363e-02
      1.06679695e-03 -9.84645449e-03 -1.83157958e-02 -7.92129897e-03
      3.65358545e-04 -3.63494689e-03 -1.24215167e-02 -1.50097231e-03
      1.92211922e-02 4.87233419e-03 0. 2.33280100e-02 4.00669686e-02
      3.13587822e-02 2.35505193e-03 9.74225998e-03 2.18944345e-03
      9.21208970e-03 -8.03727470e-03 -6.36716653e-03 -3.00149955e-02
      -1.48729244e-02 -1.39025012e-02 -1.36836246e-02 -9.24577285e-03
      2.39564199e-02 2.99621634e-02 1.61360372e-02 7.72460084e-03
      -4.88695281e-04 -1.28939776e-02 -4.30332907e-02 -3.42219472e-02
      -3.54205742e-02 -2.02234462e-02 -1.45965023e-02 -3.19043919e-03
      -2.71455734e-04 4.88685863e-03 -1.02129736e-04 1.74882840e-02
      1.27306459e-02 0. -3.92696448e-03 -1.63583346e-02 -3.26283439e-03
      -1.35563212e-02 8.06170516e-03 3.52997705e-03 -1.99846569e-02
      -1.53195928e-04 7.05941580e-03 7.11470935e-03 -2.42183041e-02
      -1.23204524e-02 -1.29614146e-02 -1.11422818e-02 -2.36046799e-02
      3.44867399e-03 5.60753886e-03 1.43180490e-02 1.75722428e-02
      1.40294600e-02 -1.36575364e-02 5.42137399e-03 2.34650001e-02
      -1.12538248e-04 2.04252545e-03 -6.70234533e-03 -7.50177423e-04
      -1.05770829e-03 -4.25095484e-03 1.37604577e-02 1.71119551e-04 0.</_>
    <_>
      -4.85836677e-02 -8.12426507e-02 -2.31711958e-02 -2.19250210e-02
      1.07023772e-02 2.06984282e-02 4.63915616e-03 3.40482853e-02
      2.22578272e-02 3.90527546e-02 5.45939393e-02 2.17357036e-02
      6.77050576e-02 4.03128937e-02 4.53284793e-02 -2.18327483e-03
      -1.89317297e-03 -2.42465641e-02 -2.07083020e-02 -2.60451101e-02
      -3.27937566e-02 -8.33026972e-03 1.36088338e-02 8.49745143e-03
      1.21250618e-02 4.67509171e-03 2.42198687e-02 1.03033185e-02
      3.97029845e-03 6.72004325e-03 -1.21857636e-02 0. -1.33607313e-02
      8.31507333e-03 -6.01729238e-03 -1.08755343e-02 -1.75910555e-02
      -5.42368880e-03 4.40367386e-02 2.76531535e-03 1.51182432e-02
      -2.47679148e-02 5.43753197e-03 -4.95769940e-02 -1.79429092e-02
      -2.35644560e-02 -3.91551591e-02 -4.97168377e-02 -4.50991392e-02
      -1.00915529e-01 9.66219604e-03 1.43048475e-02 2.21971646e-02
      6.80897608e-02 3.28690931e-02 3.64896953e-02 2.06151251e-02
      4.86913733e-02 -9.43394378e-03 3.28687914e-02 -7.78795034e-03
      -1.27230929e-02 -1.80961024e-02 0. 3.60167697e-02 8.26167166e-02
      3.52979749e-02 4.66864333e-02 8.46747961e-03 1.52738311e-03
      -4.99987118e-02 -1.94084421e-02 -3.59201357e-02 -1.01131462e-02
      -4.77917120e-02 -6.36985078e-02 -6.15225323e-02 -8.27571284e-03
      1.55949788e-02 3.60356905e-02 1.54388342e-02 -1.58915110e-02
      -8.26386549e-03 -1.79552734e-02 7.81536102e-03 -4.79394011e-02
      -2.37946063e-02 -2.71622837e-02 -3.48644741e-02 -2.22764388e-02
      -3.12572904e-02 -3.35658155e-02 -1.34449406e-02 8.10783729e-03
      6.87469728e-03 0. -1.19538009e-02 -4.15356793e-02 2.08126102e-03
      -3.90527956e-02 -4.09930348e-02 -9.92192328e-03 -1.07109360e-02
      3.80961932e-02 3.06943562e-02 2.90267933e-02 -5.47863252e-04
      -3.45261842e-02 -2.11271252e-02 -2.56477073e-02 1.71456337e-02
      6.41903654e-02 8.00975561e-02 4.62946966e-02 2.14500111e-02
      2.76732109e-02 1.18230628e-02 2.28324980e-02 -2.13642679e-02
      -3.93324159e-02 -5.27283326e-02 -1.66121814e-02 1.26773138e-02
      4.82559018e-02 1.66044347e-02 4.19733524e-02 1.57286022e-02 0.</_>
    <_>
      2.38472652e-02 1.51118198e-02 3.24112587e-02 3.32968235e-02
      1.19509932e-03 1.00200437e-02 -4.70152535e-02 -3.59753743e-02
      -1.92074515e-02 1.72935408e-02 -2.76773628e-02 -2.81382948e-02
      3.10334973e-02 2.79846601e-02 1.69537012e-02 1.23295831e-02
      1.93019453e-02 9.74277779e-03 -6.72055176e-03 1.04424721e-02
      -2.65068617e-02 -3.56451385e-02 -1.53052006e-02 -5.10708755e-03
      -2.60281935e-02 -4.62867878e-02 -1.25477305e-02 5.53164333e-02
      1.30532132e-02 1.06011732e-02 3.34945917e-02 0. -3.10334638e-02
      -2.85660643e-02 -4.08263095e-02 -3.63880098e-02 -5.12082689e-02
      -3.16239595e-02 -5.05060405e-02 -2.43824832e-02 1.05246222e-02
      5.02355583e-02 3.30523849e-02 1.60962548e-02 2.46224795e-02
      1.97741156e-03 2.33432949e-02 -2.24763136e-02 -2.68059224e-02
      -1.38233500e-02 -2.83067655e-02 -3.40269282e-02 8.88224877e-03
      7.43595650e-04 1.63140260e-02 3.42634739e-03 4.69741859e-02
      -5.53252641e-04 2.48269271e-02 -4.32246812e-02 -7.54955283e-04
      -5.54963909e-02 -9.99520719e-03 0. 4.55464013e-02 3.22642364e-02
      1.20007992e-02 7.95118585e-02 2.61288583e-02 1.01541216e-02
      -1.99762769e-02 1.69245582e-02 -6.62103109e-03 -2.04263385e-02
      -2.20086519e-03 -9.52663366e-03 1.06102880e-02 1.25795966e-02
      1.24199558e-02 -1.72558866e-04 1.26276035e-02 -6.65634079e-03
      1.16902934e-02 1.57886986e-02 -8.92748591e-03 2.19368972e-02
      -3.21040973e-02 -2.75668986e-02 -2.34758556e-02 -2.77860332e-02
      -7.59564266e-02 -5.64063266e-02 -5.40256947e-02 -7.56073818e-02
      1.68240778e-02 0. -1.12270582e-02 -3.13666537e-02 -1.93206146e-02
      -3.50712650e-02 4.51207953e-03 2.14864966e-02 -1.73070896e-02
      -1.83463506e-02 9.13925935e-03 -4.68517840e-02 5.94251556e-03
      2.50405756e-05 -2.16543823e-02 -9.93368030e-03 -3.41507122e-02
      -2.09987517e-02 -2.66704094e-02 3.26335321e-05 -8.45286530e-03
      2.59317756e-02 -1.60047226e-02 1.24838296e-02 2.73703523e-02
      1.23760700e-02 5.42879403e-02 -2.04080436e-03 5.04005030e-02
      4.75578792e-02 4.06540334e-02 5.54952435e-02 5.07947616e-03 0.</_>
    <_>
      8.13708734e-03 3.76434699e-02 2.87657715e-02 5.12205949e-03
      -1.15806581e-02 -2.22736392e-02 -1.62593666e-02 -4.38322499e-02
      -2.56674197e-02 -2.48416997e-02 -1.10032922e-02 2.45641153e-02
      4.74320091e-02 9.47940350e-03 2.99148168e-02 1.48768313e-02
      4.94284229e-03 2.62603611e-02 -2.53353547e-02 -1.56821683e-02
      -2.64299363e-02 -3.09597999e-02 -8.26507621e-03 -1.16557200e-02
      -2.96884496e-02 -2.75274236e-02 -6.72227284e-03 -2.21505798e-02
      -7.97689334e-02 -4.32973765e-02 2.31984071e-02 0. -1.91834681e-02
      -3.41773182e-02 -1.85681321e-02 9.07632755e-04 -9.39254276e-03
      -8.45224224e-03 3.38171050e-02 2.10246667e-02 1.34428218e-02
      1.10455025e-02 -3.43027748e-02 -2.86493613e-03 -3.47716808e-02
      1.71162579e-02 -6.28197158e-04 -3.04571744e-02 -3.84141728e-02
      -6.06992319e-02 3.06573249e-02 2.73140203e-02 8.56754649e-03
      3.69000211e-02 6.45513609e-02 2.00701840e-02 4.30933833e-02
      8.11743364e-03 1.39209256e-02 -3.54557261e-02 -5.66337518e-02
      -3.77919003e-02 -2.01091878e-02 0. 1.60820950e-02 2.66358498e-02
      1.27876867e-02 2.20233388e-02 1.41953994e-02 -7.48916715e-03
      -1.68224014e-02 2.03384757e-02 -1.71278380e-02 -4.19648131e-03
      -2.20424198e-02 -5.77543229e-02 -2.89840959e-02 -1.10906009e-02
      -1.56250298e-02 1.52910436e-02 -1.38838245e-02 -1.90692618e-02
      3.68340116e-04 2.33926508e-03 7.37859285e-04 5.77555096e-04
      -6.49774224e-02 -6.94216117e-02 -5.41651100e-02 -3.96145172e-02
      -3.74460034e-02 -2.58812383e-02 -3.28274481e-02 7.82775413e-03
      2.85670143e-02 0. -2.56623817e-03 -2.31543481e-02 -4.90402011e-03
      -2.53665503e-02 -2.37902571e-02 -1.28597170e-02 -8.05695308e-04
      4.87975404e-03 3.59533839e-02 3.60027067e-02 8.65913089e-03
      -5.72732240e-02 -6.16812371e-02 -5.04476242e-02 -4.38514985e-02
      3.99805419e-02 1.20024942e-02 4.77871597e-02 8.65965895e-03
      4.61570220e-03 4.76917904e-03 2.01913342e-02 -1.50223135e-03
      -3.32776411e-03 2.14443896e-02 -7.24188844e-03 4.74713519e-02
      -2.78465543e-03 2.93279365e-02 2.86101960e-02 1.33913513e-02 0.</_>
    <_>
      2.88320286e-03 3.03943381e-02 3.51722725e-02 1.51056265e-02
      -4.12597135e-02 2.30501778e-02 -7.43859634e-02 -7.49428496e-02
      4.22244556e-02 9.62574780e-02 5.96193932e-02 8.09367821e-02
      7.57448003e-02 -2.16542408e-02 6.28874749e-02 -2.31546853e-02
      5.98047348e-03 -2.26664003e-02 -3.95357199e-02 -3.56332362e-02
      -5.36809713e-02 -9.01206359e-02 -5.01183085e-02 -2.20677089e-02
      4.72753644e-02 -2.80786436e-02 6.36922047e-02 8.31307785e-04
      -1.20999441e-02 -7.86294490e-02 3.41934599e-02 0. 1.98738631e-02
      5.82419382e-03 -8.38524848e-03 -6.62214030e-03 2.41643507e-02
      -4.79726493e-02 -7.64530972e-02 -4.18553241e-02 -1.12612285e-02
      1.55649958e-02 -5.62024266e-02 -5.97016467e-03 -5.45586869e-02
      3.54417525e-02 1.03783317e-01 1.28093353e-02 -4.64992300e-02
      -1.69919822e-02 -1.62651371e-02 2.03869641e-02 3.04354765e-02
      1.30153503e-02 9.66153294e-02 5.04129529e-02 4.71024849e-02
      1.24320136e-02 2.68223304e-02 -4.32588719e-02 9.53425467e-03
      5.33338753e-04 -2.30784770e-02 0. 6.28929734e-02 4.98232469e-02
      3.53052951e-02 4.13731746e-02 2.97137685e-02 -1.24645326e-02
      -9.46718305e-02 -2.96155419e-02 -5.01366258e-02 -5.97575083e-02
      -1.65358149e-02 -9.97386649e-02 -5.95444739e-02 -2.68027224e-02
      -5.09154946e-02 3.58256064e-02 -8.77623353e-03 4.82366281e-03
      2.04054434e-02 1.07847013e-01 -5.77013195e-02 -2.72914022e-02
      -1.01211943e-01 -5.21155410e-02 -1.18696496e-01 -7.83616155e-02
      -5.23249768e-02 -1.37800589e-01 -7.24666342e-02 5.47404750e-04
      2.25259755e-02 0. -1.22316424e-02 -1.71089936e-02 -1.86348576e-02
      -4.96872095e-03 1.91369113e-02 2.91108582e-02 -2.58664060e-02
      9.09754075e-03 2.71761212e-02 4.91495570e-03 8.54110569e-02
      5.14139831e-02 6.10637628e-02 -4.51177172e-02 -5.35704456e-02
      -4.46925275e-02 -2.70357784e-02 -3.63837043e-03 2.04580687e-02
      1.97180472e-02 6.75728023e-02 1.11301087e-01 5.85929006e-02
      8.06372464e-02 -4.88276919e-03 -8.73296801e-03 1.68757290e-02
      2.29416806e-02 2.41250433e-02 4.00557220e-02 2.27301172e-03 0.</_>
    <_>
      -1.36728911e-02 -1.45179266e-02 -2.08919477e-02 -1.97711773e-02
      -2.27306522e-02 6.06002426e-03 8.69535469e-03 2.54136007e-02
      -4.73377062e-03 6.51542796e-03 1.17262139e-03 3.34658148e-03
      2.00234782e-02 9.17463005e-03 1.03900377e-02 -2.28140801e-02
      -2.19507189e-03 2.81091547e-03 -4.72384356e-02 -6.91434601e-03
      -2.49335431e-02 2.25128676e-03 -7.06411712e-03 1.30089615e-02
      1.44873206e-02 5.42485528e-03 8.90607538e-04 6.13532867e-03
      2.24826951e-03 3.06714643e-02 4.75388169e-02 0. -3.60420533e-02
      9.71372146e-03 -4.45096791e-02 -1.16690090e-02 1.65736619e-02
      3.01627144e-02 2.29440033e-02 1.58238765e-02 3.02946847e-02
      -9.46485531e-03 1.09745481e-03 1.82289593e-02 -3.25235538e-02
      6.67631160e-03 -2.32292134e-02 -2.35622060e-02 -1.71514489e-02
      -3.74757200e-02 -2.75178179e-02 3.79412388e-03 -4.13617538e-03
      2.85237916e-02 3.27783860e-02 2.98724417e-02 2.40623001e-02
      2.17181984e-02 1.34966420e-02 1.82086567e-03 -3.29911932e-02
      -3.02282199e-02 -3.63907218e-02 0. -2.19464768e-03 -8.13886989e-03
      -4.31109555e-02 3.35554779e-02 -3.48872095e-02 -5.85510442e-03
      -4.18184418e-03 -4.30012122e-03 -1.19820964e-02 3.90959904e-02
      2.50192042e-02 -1.30776409e-02 -2.14080568e-02 3.24854553e-02
      -7.36595271e-03 -2.72879172e-02 8.62592552e-03 -2.63547692e-02
      -1.38673792e-03 2.64292993e-02 3.61765288e-02 2.19190251e-02
      5.75621650e-02 3.65233272e-02 2.58099828e-02 -2.88987951e-03
      -5.65500185e-03 3.47228907e-03 1.07349260e-02 3.03200982e-03
      2.49155262e-03 0. 2.53608963e-03 3.12365294e-02 -4.82338108e-03
      -1.13582751e-03 -1.15633579e-02 1.08754756e-02 1.45227148e-03
      -2.84822788e-02 2.90192142e-02 4.00974527e-02 1.08841369e-02
      -6.72234083e-03 1.38128605e-02 1.74818765e-02 -8.06519296e-03
      2.04368308e-02 2.16147881e-02 3.05620837e-03 -1.31503465e-02
      2.34697177e-03 -2.26505063e-02 -1.58842914e-02 -3.74327600e-02
      -7.62309367e-03 -3.27368006e-02 -3.29914577e-02 1.03254849e-02
      9.55120660e-03 1.71156903e-03 1.07997004e-02 1.17975827e-02 0.</_>
    <_>
      3.27785313e-02 1.24986256e-02 -8.69730022e-04 2.11172435e-03
      -9.10647307e-03 3.40914878e-04 -7.64667429e-03 -1.96961313e-02
      -3.27827372e-02 -1.02312146e-02 -6.90534525e-03 -6.51033409e-03
      5.21055190e-03 -2.65862164e-03 -2.09635589e-03 -1.59520730e-02
      5.36150392e-03 6.81908522e-03 -8.33558757e-03 7.29514938e-03
      4.38366005e-05 -8.91699642e-03 -7.21062720e-03 -1.08557949e-02
      -1.44667821e-02 -1.38779199e-02 -7.88130797e-03 1.78040098e-02
      2.01870315e-02 2.18837205e-02 2.16068421e-02 0. -2.47521307e-02
      -2.40185391e-02 -2.77178884e-02 -1.27266021e-02 -6.06203219e-03
      1.27344206e-02 1.03688827e-02 -1.28080440e-03 1.48752574e-02
      1.65160932e-02 1.14991488e-02 2.26083193e-02 1.12613337e-02
      -9.00354862e-05 4.40678280e-03 -7.57070538e-03 -5.12868352e-03
      -8.44236743e-03 -8.41828622e-03 -1.35160610e-02 -2.49149855e-02
      1.31663792e-02 1.57036148e-02 1.23713650e-02 1.31570818e-02
      1.88893508e-02 -3.99675034e-03 -4.73515363e-03 -5.62758464e-03
      -9.36207920e-03 -1.31703783e-02 0. -3.31599601e-02 -2.41488125e-02
      -2.36046016e-02 3.22666112e-03 1.15467301e-02 -8.66924692e-03
      1.87404547e-03 1.15597639e-02 2.04192195e-03 2.24625319e-02
      7.11597456e-03 1.85203832e-02 -2.65015900e-04 1.48375211e-02
      4.81482828e-04 -1.96544640e-02 -2.11660769e-02 -2.24419348e-02
      -7.81785883e-03 3.37272882e-03 2.21935324e-02 3.46473530e-02
      3.33896726e-02 1.36492923e-02 -3.86304571e-03 -4.45670448e-03
      3.76137497e-04 -1.73435472e-02 -7.21804425e-03 -1.45531325e-02
      -1.07911211e-02 0. -3.76501656e-03 1.16868252e-02 1.17113907e-02
      -4.42228164e-04 -1.70298293e-02 6.42970623e-03 4.32636961e-03
      -3.71306413e-03 -4.23692493e-03 -1.28376754e-02 7.58779747e-03
      2.01479159e-03 4.72035911e-03 6.18806866e-04 5.98063553e-03
      -4.30024316e-04 -1.15861474e-02 -2.26948187e-02 -2.88112909e-02
      -1.31919479e-03 -3.27606052e-02 7.47479778e-03 -2.22796900e-03
      1.78545304e-02 1.36947818e-02 3.48693156e-03 1.23020746e-02
      1.09774824e-02 1.53278923e-02 -1.52121326e-02 2.68504227e-04 0.</_>
    <_>
      2.06537843e-02 2.61281785e-02 -4.66554862e-04 -5.23148058e-03
      -3.63258682e-02 -1.28364628e-02 -4.42766026e-03 6.07327733e-04
      -6.27784198e-03 -4.95612621e-02 -4.30678278e-02 -2.55697537e-02
      -3.64439934e-02 -3.35186012e-02 1.85914116e-03 1.05202931e-03
      1.68056954e-02 -4.26517874e-02 -3.45350988e-02 -1.86091587e-02
      5.68331359e-03 -3.74511406e-02 -4.42929305e-02 -1.29611213e-02
      3.60106293e-04 2.22184695e-02 6.92075910e-03 -3.11988406e-02
      -3.37031484e-02 -4.04829010e-02 6.54460862e-02 0. -1.09237574e-01
      -7.09216297e-02 -9.53908265e-02 -3.22647318e-02 -6.35087714e-02
      4.54348139e-02 6.06333353e-02 4.53181975e-02 2.36777999e-02
      2.96019483e-02 1.15631307e-02 5.49612269e-02 -2.05132477e-02
      -3.51483449e-02 -3.91437151e-02 -7.33965933e-02 -3.03035825e-02
      -5.69047071e-02 -3.23433466e-02 -2.83205304e-02 -2.99865492e-02
      4.21047509e-02 2.02005859e-02 6.22641593e-02 2.23952886e-02
      -1.87021331e-03 2.55720560e-02 -2.44910680e-02 -3.09094768e-02
      -1.54797379e-02 -4.94914986e-02 0. -2.86074243e-02 -3.04686911e-02
      -4.43201140e-02 -6.57387311e-03 -3.33969668e-02 -1.04552824e-02
      -1.89774130e-02 -2.15972867e-02 -1.65990796e-02 1.87826029e-03
      -3.36842462e-02 -2.60016732e-02 -3.93010862e-02 9.76678636e-03
      -4.69620526e-02 -5.68981394e-02 -3.17374505e-02 -4.51305285e-02
      2.47964375e-02 2.82889567e-02 7.48095429e-03 3.09320576e-02
      4.03703265e-02 2.94956341e-02 -3.05630546e-03 -3.59916799e-02
      2.83477886e-04 -4.85186689e-02 -3.92788909e-02 -7.70279542e-02
      -4.83545065e-02 0. 5.16876988e-02 1.45529828e-03 6.68640360e-02
      8.07954445e-02 1.21835591e-02 3.54533643e-02 5.29040815e-03
      8.76693707e-03 1.15304822e-02 -1.66548155e-02 2.02108342e-02
      -3.64781613e-03 6.30358979e-03 6.97077997e-03 5.88432252e-02
      5.15119247e-02 2.59738276e-03 3.71527560e-02 1.12303607e-02
      -2.44849864e-02 -2.50500254e-02 4.05550981e-03 -3.44452150e-02
      -4.07542242e-03 -1.50684789e-02 -1.94313824e-02 1.88468453e-02
      2.35733036e-02 5.03108613e-02 1.72954658e-03 6.49215793e-03 0.</_>
    <_>
      4.14214432e-02 1.39896227e-02 -4.58549568e-03 -1.39693534e-02
      -1.66015923e-02 -2.92921364e-02 -7.46435858e-03 -1.39124990e-02
      -1.09226452e-02 -1.62530818e-03 -8.21709540e-03 9.16564651e-03
      3.62895522e-03 -5.75685780e-03 -1.54603766e-02 -1.18424399e-02
      7.48738297e-04 -1.68569740e-02 -2.45815516e-02 -1.85968149e-02
      -9.04853642e-03 -3.31490897e-02 -5.95998811e-03 1.80140941e-03
      -3.26421042e-03 1.41969258e-02 -6.82247197e-03 -1.32222157e-02
      8.10236111e-03 3.39104123e-02 2.51105037e-02 0. -2.94208955e-02
      -1.82854235e-02 -2.81011350e-02 -1.19161131e-02 1.95894949e-02
      1.63518302e-02 3.42954285e-02 -6.68661110e-03 2.39233673e-02
      3.44140502e-03 -1.08399568e-02 2.99325958e-02 -1.08684544e-02
      -6.03413675e-03 1.29528930e-02 -7.23030046e-03 7.88015127e-03
      -4.27452242e-03 -4.23245691e-03 -8.07863101e-03 8.09894968e-03
      1.71318687e-02 1.53693026e-02 1.98230557e-02 1.34942047e-02
      1.23911034e-02 1.14367465e-02 8.78401939e-03 -2.60146987e-02
      -2.44716238e-02 -6.69308752e-03 0. -4.48610187e-02 -9.87635832e-03
      -3.03224381e-02 -9.95200127e-03 -2.64972206e-02 -1.54634891e-02
      -1.04425452e-03 7.79536227e-03 3.02370768e-02 6.40173955e-03
      3.26378047e-02 2.34366823e-02 -2.54781116e-02 1.25682121e-02
      -4.74511757e-02 -4.92127091e-02 -1.70792099e-02 1.15158847e-02
      1.91994309e-02 3.45436595e-02 3.18533108e-02 3.68638635e-02
      2.88468432e-02 -5.34821069e-03 7.16891838e-03 -2.27635521e-02
      -8.70619714e-03 -8.36040359e-03 -7.13640451e-03 -1.49070220e-02
      -1.77907366e-02 0. 2.40715081e-03 2.40856502e-02 1.83243621e-02
      -3.91077902e-03 1.89383227e-05 -2.68918667e-02 -3.75538762e-03
      8.04170780e-03 9.41574574e-03 5.54358819e-03 1.19447075e-02
      2.64521595e-02 8.93146358e-03 1.54335583e-02 -2.29921122e-03
      -1.10097183e-02 -3.63030322e-02 -2.84283068e-02 -3.03603616e-02
      -6.78392220e-03 -3.03580239e-03 1.90790910e-02 -1.09977834e-02
      1.20573109e-02 -5.51941665e-03 -1.05825001e-02 1.29782995e-02
      5.41747501e-03 2.36856192e-02 -1.79459043e-02 1.18049895e-02 0.</_>
    <_>
      2.25730445e-02 2.85603777e-02 1.59842018e-02 1.14459069e-02
      2.53638858e-03 -1.01554273e-02 -2.78619826e-02 -1.03985509e-02
      -4.13472280e-02 -1.32148219e-02 -6.20312942e-03 -9.22668446e-03
      -8.80713109e-03 -3.36707663e-03 -3.37852514e-03 -4.31180233e-03
      -7.94133916e-03 8.18149094e-03 3.86535516e-03 1.19987102e-02
      -9.02174041e-04 -1.41895181e-02 -1.74090024e-02 -2.34198384e-03
      -1.70618836e-02 -2.01014727e-02 -1.50161609e-02 -1.54834636e-03
      3.51992133e-03 1.69505458e-03 3.67806517e-02 0. -1.53422134e-03
      -5.51708601e-03 -9.25185625e-03 -1.81812849e-02 -2.80104019e-03
      -4.26500663e-03 -2.52885949e-02 -3.85955162e-03 -6.03595888e-03
      1.62751209e-02 1.36270281e-02 1.63202994e-02 1.26114739e-02
      1.84196644e-02 2.12744903e-02 8.41724407e-03 1.02214292e-02
      -6.47073472e-03 -1.73783842e-02 -9.68656689e-03 -1.52710602e-02
      -1.71881747e-02 -2.95062782e-03 1.16733694e-02 8.81369226e-03
      -6.21280773e-03 3.77201068e-04 6.50759879e-03 -4.09670128e-03
      1.24222413e-02 -3.39471921e-03 0. -1.15006268e-02 -1.82705093e-02
      -1.08016953e-02 9.65342298e-03 1.36077534e-02 2.09743250e-03
      5.13646472e-03 -3.62795219e-03 -7.53755402e-03 -4.04579425e-03
      -2.53795926e-03 1.64671261e-02 1.90479460e-03 -1.45125075e-03
      8.59123468e-03 9.86813335e-04 3.55165754e-03 3.83162545e-03
      4.22536070e-03 -3.96243995e-03 7.47949642e-04 1.21244173e-02
      -3.54814553e-03 -1.00437319e-02 -3.58927017e-03 -8.36886745e-03
      -1.27491057e-02 -7.82045629e-03 -2.53343992e-02 -2.26512644e-02
      -9.76339739e-04 0. -3.64715722e-03 -1.24491891e-02 -3.28984018e-03
      -3.17306747e-03 7.46518187e-03 1.64927989e-02 -1.76049024e-03
      3.17510567e-03 -7.53719406e-03 -4.46906453e-03 -1.22691868e-02
      1.09046930e-02 -4.99976752e-03 4.88792406e-03 -5.25420858e-03
      -1.88047476e-02 -1.93835031e-02 -1.15134250e-02 -9.30231996e-03
      -2.70859658e-04 1.50013692e-03 4.41695331e-03 1.28062461e-02
      1.35713937e-02 2.37472951e-02 3.91768466e-04 4.46267333e-03
      -1.48851483e-04 1.03637250e-02 1.03332661e-02 -3.08768335e-03 0.</_>
    <_>
      5.17214686e-02 1.00090191e-01 7.27326423e-02 4.22945991e-02
      -4.60846834e-02 -1.40539138e-02 -7.71176815e-02 -7.83262625e-02
      -6.35410920e-02 -2.72363070e-02 -1.73957106e-02 1.54850157e-02
      -3.38804722e-02 -6.21954650e-02 -1.79692078e-02 3.44541967e-02
      1.67486221e-02 -1.64473839e-02 4.77177985e-02 3.27904932e-02
      -6.57619610e-02 -5.42945787e-02 5.02536120e-03 -3.72645110e-02
      -3.36980298e-02 -3.32763903e-02 -3.57076265e-02 -8.13095123e-02
      -8.45187008e-02 -9.41747501e-02 7.89283887e-02 0. -3.49037424e-02
      -8.81658047e-02 -6.31271675e-02 4.37853336e-02 -3.98042165e-02
      -6.31923303e-02 3.62544954e-02 -7.49004930e-02 -4.00309451e-02
      -1.26460874e-02 -1.92940235e-02 2.57758722e-02 -2.03807559e-02
      -5.58017148e-03 5.82653284e-03 -2.08881777e-03 7.22009242e-02
      -3.47942486e-02 -3.47000547e-04 -3.73739004e-02 -8.60443413e-02
      2.77385669e-04 -2.26723794e-02 9.45361108e-02 1.24264369e-02
      -3.14087197e-02 1.32995530e-03 -1.26523646e-02 -2.69010570e-03
      -9.78978444e-03 -5.10734357e-02 0. -7.43552893e-02 -2.08635647e-02
      -5.13139702e-02 -3.63552012e-02 -4.04824223e-03 -9.43451654e-03
      -1.06851636e-02 -1.70945600e-02 -8.83440115e-03 -8.06229562e-03
      2.89748255e-02 3.29029784e-02 -6.36066943e-02 -4.56915312e-02
      -6.62985891e-02 -6.01000860e-02 -5.17223850e-02 -3.10422201e-02
      -4.68649948e-03 -1.64464060e-02 -2.42777970e-02 1.35972900e-02
      -4.52756062e-02 -5.03339171e-02 -6.19075932e-02 2.44169701e-02
      -3.06538772e-02 -4.14136127e-02 -9.98816863e-02 -8.34901631e-03
      9.20107868e-03 0. -7.92800710e-02 4.64105196e-02 -4.94276965e-03
      -4.06771107e-03 -9.89989657e-03 1.47448853e-02 5.59906773e-02
      1.75128225e-02 -2.56441515e-02 4.37539630e-03 -2.57988870e-02
      -5.40602356e-02 -5.72680943e-02 -3.25532891e-02 -3.94789241e-02
      1.98836252e-03 -1.90616585e-02 1.16850417e-02 -8.55937880e-03
      -3.74943800e-02 2.80013736e-02 -2.55355053e-03 6.14935672e-03
      3.47438306e-02 6.68361783e-02 3.10971471e-03 -1.00014918e-02
      2.60370113e-02 8.05641245e-03 -1.18618915e-02 8.05802178e-03 0.</_>
    <_>
      2.75471266e-02 2.99920440e-02 2.09901463e-02 1.24946358e-02
      1.15524000e-03 -3.41681503e-02 -1.91768631e-02 -2.36007906e-02
      -9.82635422e-04 -9.26034059e-03 1.62917143e-03 2.74995249e-03
      -3.47973173e-03 -7.85794016e-03 -7.99095258e-03 -5.35629049e-04
      -1.89066411e-03 2.40351586e-03 -2.76942388e-03 1.00968229e-02
      -5.11677563e-03 -2.59289183e-02 -8.88901297e-03 2.21635890e-03
      -1.50290914e-02 2.20364542e-03 -2.82875192e-03 -4.19913838e-03
      2.57278932e-03 -2.48736213e-03 1.82288494e-02 0. 9.55466588e-04
      1.27841055e-03 -6.97428454e-03 7.36474831e-05 3.15751694e-03
      -9.28852882e-04 -1.79584771e-02 -2.57375301e-03 -6.42008847e-03
      -1.00677926e-03 4.75769921e-05 1.20966388e-02 8.81439354e-03
      5.24799619e-03 3.01718898e-02 2.62716077e-02 1.77043155e-02
      2.14872975e-02 2.85207550e-03 -1.80925126e-03 -3.96374613e-03
      -2.13227067e-02 -1.54080866e-02 -1.74506120e-02 7.60991313e-03
      -7.85414362e-04 1.13868457e-03 2.18441244e-03 6.53364882e-03
      1.23298978e-02 1.06956307e-02 0. -1.56923160e-02 -1.39010353e-02
      -1.29720485e-02 -7.86781963e-03 5.33170113e-03 -1.43113639e-03
      -7.37680076e-03 -6.43572956e-03 5.11291344e-03 -2.21181544e-03
      -5.62840514e-03 1.72424223e-02 2.66905804e-03 -6.70329481e-03
      4.03051643e-04 -5.61972801e-03 -7.17265764e-03 9.16078500e-03
      1.62421074e-02 1.33615977e-04 8.85358779e-04 -2.97532300e-03
      -1.93831883e-02 -2.01124810e-02 -2.49743578e-03 8.47211108e-03
      -1.13675902e-02 3.54644784e-04 -1.20642819e-02 -7.68348714e-03
      -2.59664562e-02 0. -2.11866200e-03 4.69449768e-03 2.27633375e-03
      -1.04588857e-02 -2.11727549e-03 1.93270901e-03 5.44696627e-03
      2.16437262e-02 9.47245955e-03 8.11638217e-03 -3.38996435e-03
      1.51740601e-02 9.21811257e-03 7.59931467e-03 -1.82167664e-02
      -3.65049094e-02 -3.52961980e-02 -2.71277353e-02 -2.49578785e-02
      1.39470417e-02 8.40500649e-03 3.03418096e-02 3.24612595e-02
      1.29712466e-02 2.48164665e-02 1.94828364e-03 -1.40697730e-03
      -7.23644905e-03 -2.46988656e-03 -1.72151215e-02 9.23789106e-03 0.</_>
    <_>
      -5.61534474e-03 3.03949509e-02 -2.18873844e-02 -3.64602008e-03
      -1.05735334e-02 -2.61876378e-02 -1.26203662e-02 5.44066541e-02
      4.74483743e-02 1.67944096e-02 -4.55789901e-02 -1.95026137e-02
      1.19694928e-02 -1.33835897e-02 1.52793080e-02 2.76376661e-02
      -6.47198176e-03 -1.09806582e-02 5.05396053e-02 7.24195875e-03
      -2.63346396e-02 3.01927309e-02 1.16281183e-02 2.26918291e-02
      1.18980939e-02 2.84867547e-02 -3.05399913e-02 -1.12741582e-01
      -8.01526308e-02 -4.79473136e-02 -3.26393470e-02 0. -2.04088334e-02
      -8.42066598e-04 3.28494571e-02 1.03964442e-02 7.89762475e-04
      9.43322945e-03 7.17730820e-02 2.48847883e-02 7.40052294e-03
      -2.49270094e-03 -4.57058437e-02 -5.03487065e-02 -6.23717755e-02
      -1.76631622e-02 -1.82849690e-02 -6.25309944e-02 -3.15997861e-02
      -2.59406436e-02 -1.26337875e-02 2.55235024e-02 5.22631258e-02
      3.98026034e-02 -9.66085680e-03 2.94158910e-03 -7.36506330e-03
      -1.25344703e-02 -2.37871092e-02 -1.71540491e-02 -4.08877023e-02
      -6.60717767e-03 4.75702249e-02 0. 1.62960161e-02 -4.22177743e-03
      -4.77170851e-03 -5.74479811e-02 -6.40169606e-02 -1.33049609e-02
      -7.09146820e-03 1.30057149e-02 -2.57165767e-02 -2.53342558e-02
      -2.26297732e-02 -5.30618876e-02 -7.40552768e-02 -3.40097994e-02
      -7.34348670e-02 -1.03623504e-02 -4.34944816e-02 -1.89510714e-02
      -5.43898754e-02 -3.81295756e-02 -1.46904383e-02 -3.51072550e-02
      -5.81355989e-02 -5.78260086e-02 1.29713155e-02 -2.42348220e-02
      -4.12589461e-02 2.98973303e-02 -2.78116614e-02 8.67592171e-03
      -1.76106114e-02 0. -2.27152705e-02 1.71004552e-02 2.80395970e-02
      3.11736129e-02 -2.17061304e-02 -4.34476919e-02 4.30774577e-02
      -7.94263929e-03 1.99467205e-02 1.87754389e-02 6.86540734e-05
      -4.16338108e-02 -1.25013459e-02 -3.82848829e-02 -8.34119413e-03
      4.07720841e-02 5.77507615e-02 3.20494659e-02 1.72774419e-02
      3.08119319e-02 7.42154801e-03 -1.89558733e-02 1.16443289e-02
      -1.12246592e-02 -1.55153889e-02 5.83099481e-03 1.67839229e-02
      -5.11647612e-02 -5.91216311e-02 -3.96332517e-02 -1.80235915e-02 0.</_>
    <_>
      -1.68269854e-02 -2.57499237e-02 -1.61090102e-02 1.09627284e-02
      -8.20036884e-03 1.18585555e-02 -1.15140444e-02 3.81648615e-02
      2.54475884e-02 4.72748131e-02 3.37864086e-02 1.47974407e-02
      2.96794996e-02 -1.06212553e-02 -6.27122298e-02 5.24011115e-03
      2.38366928e-02 1.61851980e-02 -1.12793883e-02 -8.92212987e-03
      -2.65823472e-02 1.13146203e-02 2.48028785e-02 1.12485676e-03
      2.22907923e-02 2.91644745e-02 -4.17044759e-02 -5.58875175e-03
      -4.04705144e-02 -4.73764427e-02 -2.89062019e-02 0. 6.75179018e-03
      2.10744198e-02 1.55952843e-02 1.82030164e-02 2.71683885e-03
      -8.57024454e-03 1.85236279e-02 2.43413094e-02 -2.21542176e-02
      -8.50038677e-02 -1.56715661e-01 -9.97051075e-02 -9.24695954e-02
      -1.55209955e-02 -2.88680568e-02 -4.03794385e-02 -2.51647588e-02
      4.85807471e-02 8.15704986e-02 -2.28597219e-06 3.76752913e-02
      -2.22717747e-02 -2.43490506e-02 -2.95727905e-02 -6.34605438e-02
      -6.42075837e-02 -7.45735783e-03 -8.69144406e-03 1.76380742e-02
      3.81266996e-02 -1.83499628e-03 0. 5.68313673e-02 3.26251015e-02
      5.57784960e-02 -1.50348488e-02 -2.94935629e-02 -3.65452319e-02
      1.56779904e-02 -1.17286984e-02 -1.22088473e-02 -7.92543171e-04
      -2.38119550e-02 -1.86508149e-02 -2.62174141e-02 -2.11101416e-02
      -1.31565481e-02 4.71918751e-03 1.30167585e-02 3.11986869e-03
      -3.71228531e-03 1.17033953e-02 -5.59485145e-03 -1.25347152e-02
      -3.64466086e-02 -3.45914327e-02 -3.13958377e-02 1.08608889e-04
      1.79301519e-02 -1.54710244e-02 -4.19926718e-02 4.79444899e-02
      2.18356419e-02 0. 1.03823189e-02 2.44245194e-02 3.56240049e-02
      6.38476759e-03 -2.21519452e-03 -5.20499935e-03 4.01485413e-02
      -3.14180665e-02 -1.51482434e-03 3.04155890e-02 -6.81769624e-02
      6.67781681e-02 -3.05475984e-02 4.65778448e-02 5.16658351e-02
      1.46230897e-02 -4.62603057e-03 5.37577132e-03 2.34511960e-02
      2.57557188e-03 6.08248338e-02 5.71051873e-02 1.85692087e-02
      -2.23520468e-03 -2.17631906e-02 -6.37720898e-02 -3.02018914e-02
      -8.18106830e-02 -9.17036533e-02 -8.62338021e-02 -2.19625439e-02 0.</_>
    <_>
      -1.30408769e-02 -2.62918025e-02 -9.29898303e-03 1.75299961e-02
      8.22289195e-03 8.53925850e-03 1.51369348e-03 -2.09000632e-02
      3.66994180e-02 6.72919443e-03 2.34440435e-02 1.79473832e-02
      2.12028418e-02 2.58473568e-02 4.94081667e-03 -2.88683665e-03
      4.63955011e-03 1.64369121e-02 -1.87752061e-02 -3.92462239e-02
      -2.70891320e-02 -6.10488420e-03 1.57831199e-02 7.53191591e-04
      -1.29821645e-02 4.92202155e-02 2.53858436e-02 7.58414119e-02
      6.15134165e-02 9.39351134e-03 5.56117995e-03 0. 4.00577523e-02
      2.93221902e-02 9.49357357e-03 6.12592790e-03 1.56743787e-02
      -1.93263888e-02 -3.85614894e-02 -3.80976982e-02 8.01930577e-03
      -6.69770269e-03 -3.97131816e-02 1.33038219e-02 1.54743064e-02
      -1.04560908e-02 3.16295177e-02 5.96824996e-02 2.34980006e-02
      4.33781408e-02 3.15293930e-02 -9.36742127e-03 2.42014928e-03
      -3.86014581e-02 -1.99659131e-02 -4.13586050e-02 -2.06436701e-02
      -2.84610745e-02 1.46632008e-02 1.98829249e-02 3.16990800e-02
      7.07772374e-02 9.90478601e-03 0. 2.60119792e-02 1.26924198e-02
      6.88833464e-03 2.36743037e-02 3.72682378e-04 -2.01978218e-02
      -2.94731744e-02 1.02348551e-02 -4.07610610e-02 -2.83725763e-04
      1.35854753e-02 1.88050531e-02 5.31981848e-02 1.17691336e-02
      1.73948370e-02 6.31801970e-03 1.71080045e-02 1.20472517e-02
      3.62821929e-02 9.24164522e-03 1.42888282e-03 1.93874110e-02
      -9.60585603e-04 -1.32705299e-02 -1.40854269e-02 2.59949695e-02
      1.85801797e-02 -2.99926288e-02 3.02184764e-02 -1.18830625e-03
      -1.17735472e-02 0. -1.30439168e-02 3.33983973e-02 1.78545259e-03
      -5.30193932e-02 1.49437888e-02 3.18566673e-02 -1.55140609e-02
      1.78149529e-03 2.51465179e-02 1.49289761e-02 -1.68479308e-02
      4.50780876e-02 2.16114316e-02 5.18399589e-02 1.76898502e-02
      -3.63919735e-02 -6.38014674e-02 -5.90716675e-02 -2.78011840e-02
      -1.37062743e-02 2.13847104e-02 6.57541901e-02 3.86346057e-02
      7.71903479e-03 1.55429505e-02 8.51927698e-03 -1.39620239e-02
      1.50685655e-02 2.13666543e-04 -4.67470139e-02 -4.44668345e-02 0.</_></support_vectors>
  <uncompressed_sv_total>1748</uncompressed_sv_total>
  <uncompressed_support_vectors>
    <_>
      2.10765672e+00 0. 3.05194592e+00 1.55951142e+00 5.62090397e-01
      6.83277178e+00 3.66575203e+01 1.46921291e+01 0. 0. 0.
      2.43219399e+00 3.32998466e+00 2.12683082e+00 5.77431297e+00 0. 0.
      0. 4.12619734e+00 3.44974756e+00 3.74208784e+00 4.02219915e+00
      7.49946296e-01 5.94849634e+00 3.37829971e+00 8.68209457e+00
      1.31566353e+01 1.58784533e+01 1.55597658e+01 0. 0. 0. 0. 0.
      8.41664612e-01 3.25468946e+00 2.00595798e+01 3.27546043e+01
      6.91315842e+00 0. 0. 0. 0. 0. 0. 0. 0. 0. 0. 0. 0. 6.31580651e-01
      1.07499599e+00 7.05552769e+00 2.34597359e+01 1.15118303e+01
      6.52646732e+00 1.79540622e+00 9.32068634e+00 3.41591716e+00
      2.54358077e+00 9.49144065e-01 0. 0. 0. 0. 0. 0. 0. 4.05467272e+00
      1.07800779e+01 1.82544918e+01 5.34554672e+00 1.89944859e+01
      1.22319584e+01 1.50888956e+00 4.46088934e+00 1.71914291e+00
      1.27518666e+00 6.27451017e-02 1.14015989e-01 1.01478462e+01
      5.22632408e+00 1.53497875e+00 8.01232624e+00 6.61791039e+00
      1.24084110e+01 3.56104779e+00 1.10899363e+01 1.11564147e+00 0.
      1.80365026e+00 0. 0. 0. 0. 4.99868107e+00 0. 3.33866572e+00
      1.28022408e+00 6.26642179e+00 1.99122505e+01 7.90365338e-01 0. 0.
      0. 1.80785255e+01 1.10188074e+01 1.81144655e+00 1.49948180e+00
      6.23128366e+00 8.17602825e+00 2.78860927e+00 3.66722322e+00 0.
      8.50797749e+00 5.14668961e+01 0. 0. 0. 0. 1.28259010e+01
      7.65699196e+00 3.01868367e+00 0. 0. 4.05397266e-01 0.</_>
    <_>
      6.26792240e+00 3.68838978e+00 7.62337780e+00 4.37521839e+00
      1.10214939e+01 1.03715467e+01 0. 0. 0. 0. 0. 0. 0. 3.51854944e+00
      2.66683340e+00 0. 0. 2.22234035e+00 2.56313872e+00 3.56719637e+00
      2.02737832e+00 0. 1.78438008e+00 0. 0. 0. 0. 7.95688108e-02 0.
      5.58627605e+00 3.63623977e+00 0. 1.89950988e-01 2.73328781e+00 0.
      5.44920349e+00 0. 0. 3.79537225e+00 2.20794892e+00 0.
      7.01420784e+00 0. 3.89204574e+00 6.00470829e+00 0. 1.37711287e+00
      0. 7.26838231e-01 0. 0. 0. 0. 2.25649929e+00 0. 0. 8.36499214e+00
      1.57854033e+01 6.89353180e+00 7.10772181e+00 8.62494564e+00
      2.71677041e+00 0. 0. 0. 0. 0. 0. 0. 1.04035168e+01 1.00104971e+01
      3.28680277e+00 7.33402157e+00 2.41385555e+00 4.24860191e+00
      5.29172516e+00 0. 0. 0. 5.19971514e+00 0. 3.44129229e+00 0.
      6.37965631e+00 8.39094639e+00 2.38515205e+01 3.51333523e+00 0. 0.
      0. 0. 0. 0. 0. 0. 0. 0. 2.94800591e+00 0. 0. 3.28915548e+00
      1.92887068e+00 5.79738522e+00 3.89506269e+00 0. 1.56239700e+01
      3.30337429e+00 1.01437502e+01 5.85503244e+00 6.69970846e+00
      7.54665673e-01 6.30847359e+00 5.48187420e-02 6.66122973e-01
      2.64941835e+00 3.27036083e-01 5.03235340e+00 2.64580870e+00
      7.20737362e+00 1.45710573e+01 6.72830200e+00 5.42322445e+00 0.
      4.08284855e+00 2.28659225e+00 1.04130960e+00 0. 0.</_>
    <_>
      4.63905287e+00 1.28938627e+01 3.80226612e+00 6.62757301e+00
      6.41412544e+00 1.18118210e+01 2.44052563e+01 1.03282595e+01 0. 0.
      0. 0. 0. 4.98253226e-01 0. 0. 0. 0. 1.57949436e+00 2.74161415e+01
      1.39537334e+01 0. 2.37893009e+00 0. 0. 0. 0. 1.33215559e+00 0.
      6.69061136e+00 0. 0. 1.93595409e+01 1.49685135e+01 1.16549597e+01
      5.63079977e+00 0. 0. 0. 0. 0. 0. 0. 0. 0. 0. 0. 6.17647052e-01 0.
